0,1,2,3,4,5,6,7,8,9,10,11,12,13,14,15,16,17,18,19,20,21,22,23,24,25,26,27,28,29,30,31,32,33,34,35,36,37,38,39,40,41,42,43,44,45,46,47,48,49,50,51,52,53,54,55,56,57,58,59,60,61,62,63,64,65,66,67,68,69,70,71,72,73,74,75,76,77,78,79,80,81,82,83,84,85,86,87,88,89,90,91,92,93,94,95,96,97,98,99,100,101,102,103,104,105,106,107,108,109,110,111,112,113,114,115,116,117,118,119,120,121,122,123,124,125,126,127,128,129,130,131,132,133,134,135,136,137,138,139,140,141,142,143,144,145,146,147,148,149,150,151,152,153,154,155,156,157,158,159,160,161,162,163,164,165,166,167,168,169,170,171,172,173,174,175,176,177,178,179,180,181,182,183,184,185,186,187,188,189,190,191,192,193,194,195,196,197,198,199,200,201,202,203,204,205,206,207,208,209,210,211,212,213,214,215,216,217,218,219,220,221,222,223,224,225,226,227,228,229,230,231,232,233,234,235,236,237,238,239,240,241,242,243,244,245,246,247,248,249,250,251,252,253,254,255,256,257,258,259,260,261,262,263,264,265,266,267,268,269,270,271,272,273,274,275,276,277,278,279,280,281,282,283,284,285,286,287,288,289,290,291,292,293,294,295,296,297,298,299,300,301,302,303,304,305,306,307,308,309,310,311,312,313,314,315,316,317,318,319,320,321,322,323,324,325,326,327,328,329,330,331,332,333,334,335,336,337,338,339,340,341,342,343,344,345,346,347,348,349,350,351,352,353,354,355,356,357,358,359,360,361,362,363,364,365,366,367,368,369,370,371,372,373,374,375,376,377,378,379,380,381,382,383,384,385,386,387,388,389,390,391,392,393,394,395,396,397,398,399,400,401,402,403,404,405,406,407,408,409,410,411,412,413,414,415,416,417,418,419,420,421,422,423,424,425,426,427,428,429,430,431,432,433,434,435,436,437,438,439,440,441,442,443,444,445,446,447,448,449,450,451,452,453,454,455,456,457,458,459,460,461,462,463,464,465,466,467,468,469,470,471,472,473,474,475,476,477,478,479,480,481,482,483,484,485,486,487,488,489,490,491,492,493,494,495,496,497,498,499,500,501,502,503,504,505,506,507,508,509,510,511,512,513,514,515,516,517,518,519,520,521,522,523,524,525,526,527,528,529,530,531,532,533,534,535,536,537,538,539,540,541,542,543,544,545,546,547,548,549,550,551,552,553,554,555,556,557,558,559,560,561,562,563,564,565,566,567,568,569,570,571,572,573,574,575,576,577,578,579,580,581,582,583,584,585,586,587,588,589,590,591,592,593,594,595,596,597,598,599,600,601,602,603,604,605,606,607,608,609,610,611,612,613,614,615,616,617,618,619,620,621,622,623,624,625,626,627,628,629,630,631,632,633,634,635,636,637,638,639,640,641,642,643,644,645,646,647,648,649,650,651,652,653,654,655,656,657,658,659,660,661,662,663,664,665,666,667,668,669,670,671,672,673,674,675,676,677,678,679,680,681,682,683,684,685,686,687,688,689,690,691,692,693,694,695,696,697,698,699,700,701,702,703,704,705,706,707,708,709,710,711,712,713,714,715,716,717,718,719,720,721,722,723,724,725,726,727,728,729,730,731,732,733,734,735,736,737,738,739,740,741,742,743,744,745,746,747,748,749,750,751,752,753,754,755,756,757,758,759,760,761,762,763,764,765,766,767,768,769,770,771,772,773,774,775,776,777,778,779,780,781,782,783,784,785,786,787,788,789,790,791,792,793,794,795,796,797,798,799,800,801,802,803,804,805,806,807,808,809,810,811,812,813,814,815,816,817,818,819,820,821,822,823,824,825,826,827,828,829,830,831,832,833,834,835,836,837,838,839,840,841,842,843,844,845,846,847,848,849,850,851,852,853,854,855,856,857,858,859,860,861,862,863,864,865,866,867,868,869,870,871,872,873,874,875,876,877,878,879,880,881,882,883,884,885,886,887,888,889,890,891,892,893,894,895,896,897,898,899,900,901,902,903,904,905,906,907,908,909,910,911,912,913,914,915,916,917,918,919,920,921,922,923,924,925,926,927,928,929,930,931,932,933,934,935,936,937,938,939,940,941,942,943,944,945,946,947,948,949,950,951,952,953,954,955,956,957,958,959,960,961,962,963,964,965,966,967,968,969,970,971,972,973,974,975,976,977,978,979,980,981,982,983,984,985,986,987,988,989,990,991,992,993,994,995,996,997,998,999,1000,1001,1002,1003,1004,1005,1006,1007,1008,1009,1010,1011,1012,1013,1014,1015,1016,1017,1018,1019,1020,1021,1022,1023,1024,1025,1026,1027,1028,1029,1030,1031,1032,1033,1034,1035,1036,1037,1038,1039,1040,1041,1042,1043,1044,1045,1046,1047,1048,1049,1050,1051,1052,1053,1054,1055,1056,1057,1058,1059,1060,1061,1062,1063,1064,1065,1066,1067,1068,1069,1070,1071,1072,1073,1074,1075,1076,1077,1078,1079,1080,1081,1082,1083,1084,1085,1086,1087,1088,1089,1090,1091,1092,1093,1094,1095,1096,1097,1098,1099,1100,1101,1102,1103,1104,1105,1106,1107,1108,1109,1110,1111,1112,1113,1114,1115,1116,1117,1118,1119,1120,1121,1122,1123,1124,1125,1126,1127,1128,1129,1130,1131,1132,1133,1134,1135,1136,1137,1138,1139,1140,1141,1142,1143,1144,1145,1146,1147,1148,1149,1150,1151,1152,1153,1154,1155,1156,1157,1158,1159,1160,1161,1162,1163,1164,1165,1166,1167,1168,1169,1170,1171,1172,1173,1174,1175,1176,1177,1178,1179,1180,1181,1182,1183,1184,1185,1186,1187,1188,1189,1190,1191,1192,1193,1194,1195,1196,1197,1198,1199,1200,1201,1202,1203,1204,1205,1206,1207,1208,1209,1210,1211,1212,1213,1214,1215,1216,1217,1218,1219,1220,1221,1222,1223,1224,1225,1226,1227,1228,1229,1230,1231,1232,1233,1234,1235,1236,1237,1238,1239,1240,1241,1242,1243,1244,1245,1246,1247,1248,1249,1250,1251,1252,1253,1254,1255,1256,1257,1258,1259,1260,1261,1262,1263,1264,1265,1266,1267,1268,1269,1270,1271,1272,1273,1274,1275,1276,1277,1278,1279,1280,1281,1282,1283,1284,1285,1286,1287,1288,1289,1290,1291,1292,1293,1294,1295,1296,1297,1298,1299,1300,1301,1302,1303,1304,1305,1306,1307,1308,1309,1310,1311,1312,1313,1314,1315,1316,1317,1318,1319,1320,1321,1322,1323,1324,1325,1326,1327,1328,1329,1330,1331,1332,1333,1334,1335,1336,1337,1338,1339,1340,1341,1342,1343,1344,1345,1346,1347,1348,1349,1350,1351,1352,1353,1354,1355,1356,1357,1358,1359,1360,1361,1362,1363,1364,1365,1366,1367,1368,1369,1370,1371,1372,1373,1374,1375,1376,1377,1378,1379,1380,1381,1382,1383,1384,1385,1386,1387,1388,1389,1390,1391,1392,1393,1394,1395,1396,1397,1398,1399,1400,1401,1402,1403,1404,1405,1406,1407,1408,1409,1410,1411,1412,1413,1414,1415,1416,1417,1418,1419,1420,1421,1422,1423,1424,1425,1426,1427,1428,1429,1430,1431,1432,1433,1434,1435,1436,1437,1438,1439,1440,1441,1442,1443,1444,1445,1446,1447,1448,1449,1450,1451,1452,1453,1454,1455,1456,1457,1458,1459,1460,1461,1462,1463,1464,1465,1466,1467,1468,1469,1470,1471,1472,1473,1474,1475,1476,1477,1478,1479,1480,1481,1482,1483,1484,1485,1486,1487,1488,1489,1490,1491,1492,1493,1494,1495,1496,1497,1498,1499,1500,1501,1502,1503,1504,1505,1506,1507,1508,1509,1510,1511,1512,1513,1514,1515,1516,1517,1518,1519,1520,1521,1522,1523,1524,1525,1526,1527,1528,1529,1530,1531,1532,1533,1534,1535
2.1041802028776146e-05,0.0053370920941233635,0.0036669254768639803,0.037934280931949615,-0.0328245647251606,-0.03074098937213421,-0.030658308416604996,0.0605890192091465,0.0048947460018098354,-0.039885565638542175,-0.029947247356176376,-0.03399864211678505,-0.006970052141696215,0.014229489490389824,0.006771616637706757,0.013444015756249428,-0.03895953297615051,0.010798206552863121,-0.049245115369558334,0.06250722706317902,-0.005039438605308533,-0.005994410254061222,0.05635572597384453,-0.017214292660355568,-0.018090717494487762,-0.047227684408426285,0.014353511855006218,-0.014469265937805176,0.027582556009292603,-0.030079538002610207,0.010062341578304768,-0.04286210238933563,0.015064572915434837,0.022638199850916862,-0.028657415881752968,0.02035619132220745,-0.016139432787895203,0.05265159159898758,-0.01137697696685791,-0.022836636751890182,-0.004365584347397089,-0.05996064096689224,0.05427215248346329,0.01150926761329174,-0.004253964405506849,0.011137201450765133,0.00091001350665465,0.01825607940554619,0.017991499975323677,0.0370413213968277,-0.005242008715867996,0.030707918107509613,-0.003931506536900997,0.07818364351987839,-0.02242322824895382,-0.062308795750141144,0.019843565300107002,-0.003805417101830244,-0.004766589961946011,-0.034428585320711136,-0.020455408841371536,-0.013278651982545853,0.04934433102607727,0.018355298787355423,-0.007557091303169727,-0.04640087112784386,-0.004919550381600857,0.008235079236328602,-0.019727811217308044,0.02951730415225029,-0.021662559360265732,0.03062523528933525,0.03849651664495468,0.0036958639975637197,0.015039769001305103,-0.024589484557509422,0.013559769839048386,0.015320885926485062,0.04411885887384415,-0.004003852605819702,0.004049327690154314,-0.007784465327858925,0.009433961473405361,-0.05036958307027817,-0.018950603902339935,-0.029798420146107674,-0.11006563901901245,0.05592578276991844,-0.007106476929038763,-0.003580109914764762,-0.020372727885842323,0.004233293700963259,-0.03945562243461609,0.009690274484455585,0.019066359847784042,-0.019876638427376747,0.010574966669082642,0.023779205977916718,0.026755740866065025,-0.038331154733896255,0.00441932724788785,-0.020984569564461708,0.012236865237355232,-0.05771170184016228,-0.01931440271437168,0.0370413213968277,-0.015196863561868668,-0.038132719695568085,-0.001389049575664103,0.025201328098773956,-0.11357133835554123,0.0037723444402217865,-0.01774345524609089,0.013237311504781246,-0.03322143480181694,-0.010450944304466248,-0.047095395624637604,-0.005200667772442102,0.0034829590003937483,-0.0010386866051703691,-0.026292724534869194,0.005411505699157715,0.025184791535139084,-0.02632579579949379,-0.0031046911608427763,-0.005576868541538715,0.010219436138868332,-0.03317182511091232,-0.011368709616363049,-0.0065731811337172985,0.010624575428664684,-0.04368891566991806,0.015180326998233795,-0.035586126148700714,-0.020819207653403282,0.030244899913668633,-0.029285795986652374,-0.017644235864281654,0.005312287714332342,-0.036115288734436035,0.022142112255096436,-0.012443569488823414,0.0033713390585035086,0.00034752077772282064,-0.012451836839318275,-0.048848241567611694,-0.011137201450765133,-0.003160501131787896,-0.020190827548503876,0.0008113124058581889,-0.0106907207518816,-0.014874406158924103,-0.050799526274204254,0.00024029317137319595,-0.014808260835707188,-0.07117225229740143,0.023944567888975143,0.055231258273124695,-0.025399763137102127,0.043655842542648315,0.0018923733150586486,0.03945562243461609,-0.005758767947554588,0.009822565130889416,0.026358868926763535,-0.01199708878993988,0.023183899000287056,-0.019397085532546043,-0.08321068435907364,0.039620984345674515,-0.04153919592499733,0.008425246924161911,-0.04421807825565338,0.04061316326260567,-0.032874174416065216,0.003303126897662878,-0.024672165513038635,-0.018223008140921593,-0.01403932273387909,-0.026755740866065025,0.06637672334909439,0.010343458503484726,0.0038488248828798532,-0.019810492172837257,0.0018117588479071856,0.0008133794763125479,-0.012418764643371105,0.02131529711186886,0.02217518351972103,0.019165577366948128,0.03555305302143097,0.033833280205726624,-0.009772955439984798,0.05843929946422577,0.015428371727466583,-0.028657415881752968,0.023961104452610016,0.023613842204213142,0.03512310981750488,0.028773169964551926,-0.018487587571144104,0.01150926761329174,-0.0011554742231965065,-0.03651215881109238,-0.017793063074350357,-0.0013973177410662174,-0.013344797305762768,-0.029021214693784714,-0.006432622205466032,-0.013832618482410908,0.06204421445727348,0.009128039702773094,-0.014758652076125145,-0.009938319213688374,0.024854065850377083,-0.009392620995640755,-0.015816975384950638,0.055297400802373886,0.017578091472387314,-0.051460977643728256,-0.03141897916793823,-0.0011110329069197178,0.043655842542648315,-0.0033299983479082584,0.02477138489484787,0.0360160693526268,0.03723975643515587,0.005022902507334948,-0.011145468801259995,0.021827921271324158,0.01117854192852974,0.018702561035752296,-0.023961104452610016,-0.02802903577685356,0.0037165344692766666,0.02685495838522911,-0.01645362377166748,-0.039488695561885834,0.018024571239948273,0.031121324747800827,-0.04960891231894493,-0.011773848906159401,0.025498980656266212,0.001047988305799663,0.041373834013938904,-0.009119771420955658,-0.031981211155653,-0.03485852852463722,0.017263902351260185,-0.04034858196973801,-0.012443569488823414,0.019463229924440384,-0.015238204039633274,0.001276395982131362,-0.019975855946540833,0.012642004527151585,-0.005882790312170982,0.0457724891602993,-0.01878524199128151,-0.030856743454933167,0.03406478837132454,-0.034759312868118286,-0.06482231616973877,0.045210257172584534,-0.04894746094942093,0.0064615607261657715,0.0108560835942626,-0.007156085688620806,-0.02809518203139305,0.03886031359434128,0.016048483550548553,-0.024672165513038635,0.04494567587971687,0.027780991047620773,-0.013617646880447865,-0.00011233059922233224,0.01747887395322323,0.0001275104150408879,-0.021216077730059624,0.02235708385705948,-0.006779884919524193,0.0013621781254187226,-0.03680981323122978,0.02796289138495922,-0.02530054561793804,-0.027780991047620773,0.06194499507546425,-0.013832618482410908,0.004320109728723764,-0.024854065850377083,-0.018636414781212807,-0.010269044898450375,0.05344533547759056,-0.002654076786711812,0.012501446530222893,-0.00887999590486288,-0.03555305302143097,-0.06839415431022644,0.023250043392181396,0.02789674513041973,0.028194399550557137,0.011881334707140923,0.00531642185524106,-0.04471416771411896,-0.028574733063578606,0.0582408644258976,0.0407123826444149,-0.02333272621035576,-0.03892645984888077,0.027797527611255646,-0.015643343329429626,0.01313809398561716,-0.017330046743154526,0.02893853187561035,-0.029368476942181587,-0.05387527868151665,-0.012145916000008583,0.03224579244852066,-9.198319457937032e-05,-0.04798835515975952,0.05774477496743202,-0.0272518303245306,0.005973740015178919,-0.05820779129862785,0.024622557684779167,0.00837150402367115,0.011037983000278473,-0.04623550549149513,-0.005113852210342884,-0.017511947080492973,-0.007019661366939545,-0.055694274604320526,-0.0072801080532372,-0.0028711159247905016,-0.03472623974084854,-0.04871595278382301,-0.0062672593630850315,0.0016970381839200854,0.024357976391911507,0.008297090418636799,-0.04147304967045784,0.017826136201620102,0.034296296536922455,-0.03972020372748375,-0.04044780135154724,-0.02783060073852539,0.0632348284125328,-0.022853173315525055,-0.016230382025241852,0.023911496624350548,0.003745472989976406,0.028905460610985756,0.005465248599648476,0.02235708385705948,0.04901360720396042,-0.0373389758169651,0.04795528203248978,-0.020753061398863792,-0.07586856186389923,0.027450265362858772,0.01661071740090847,0.0060729580000042915,0.0027863672003149986,0.0034250819589942694,0.04487952962517738,0.026805348694324493,-0.014742115512490273,0.015188595280051231,0.014320439659059048,-0.0009787424933165312,-0.01995931938290596,-0.023051608353853226,0.0017890214221552014,-0.04491260275244713,-0.02501942776143551,-0.028177862986922264,0.010384798981249332,0.014122003689408302,0.018884459510445595,0.010417872108519077,0.010087145492434502,0.04960891231894493,-0.0045929583720862865,-0.018156861886382103,0.07084152847528458,-0.021662559360265732,-0.00039428751915693283,0.015229936689138412,0.015957534313201904,-0.057248685508966446,0.02599507011473179,-0.01499016024172306,0.018041107803583145,-0.06320175528526306,0.0174954105168581,-0.022340547293424606,0.039091821759939194,0.08082945644855499,-0.03236154839396477,-0.020984569564461708,0.023316189646720886,-0.03823193535208702,0.011881334707140923,-0.006531840190291405,-0.024655628949403763,0.020190827548503876,-0.011261222884058952,-0.016155969351530075,0.013171166181564331,-0.032345011830329895,-0.008156532421708107,-0.07143683731555939,0.01265027280896902,0.01059977151453495,0.006349940784275532,0.022853173315525055,0.010376530699431896,-0.014188149012625217,-0.013187702745199203,0.0171646848320961,-0.0548674575984478,-0.016536304727196693,0.004349048249423504,-0.014899210073053837,0.01082301139831543,-0.004716980736702681,0.019149040803313255,-0.06521918624639511,0.011352173052728176,-0.05744712054729462,0.032543446868658066,8.229395461967215e-05,0.01596580259501934,0.014518875628709793,-0.013245579786598682,0.028558198362588882,-0.019942782819271088,-0.027483338490128517,-0.01199708878993988,0.03120400570333004,-0.011269491165876389,-0.007156085688620806,-0.0010443709325045347,0.007656308822333813,-0.058803100138902664,-0.020901888608932495,0.04861673340201378,-0.009343012236058712,-0.02268780954182148,-0.04871595278382301,-0.003819886362180114,0.020719990134239197,-0.002881451044231653,-0.011145468801259995,-0.020686917006969452,0.005593405105173588,-0.012236865237355232,-0.02151373215019703,0.005423907656222582,-0.010740329511463642,-0.016271723434329033,0.009260330349206924,-0.015982337296009064,0.04564020037651062,-0.006490499246865511,-0.010897425003349781,-0.015841780230402946,0.049311257898807526,6.268938886933029e-05,-0.022919317707419395,-0.017214292660355568,-0.036578305065631866,-0.012898317538201809,0.02419261261820793,-0.018735632300376892,-0.03406478837132454,0.030211828649044037,-0.0215302687138319,-0.045805562287569046,-0.016718203201889992,-0.011724240146577358,-0.030244899913668633,0.019876638427376747,0.04650008678436279,0.0064615607261657715,-0.0061308350414037704,0.05103103443980217,0.03229540213942528,-0.038595736026763916,-0.009632397443056107,-0.018123788759112358,0.018818315118551254,0.020306581631302834,-0.020323118194937706,-0.034097861498594284,-0.028756633400917053,0.031187471002340317,-0.021728703752160072,0.08797314018011093,-0.04550790786743164,0.01687529869377613,-0.00611016433686018,0.005357762798666954,-0.0018644683295860887,0.03551998361945152,0.02913696877658367,-0.013543233275413513,-0.047558411955833435,0.023349260911345482,0.005605807062238455,0.039422549307346344,-0.00406379671767354,-0.009152844548225403,-0.018057644367218018,-0.02288624458014965,0.013708596117794514,-0.02412646822631359,0.034693166613578796,-0.03229540213942528,-0.00547765102237463,-0.026937639340758324,-0.021877530962228775,-0.001306368038058281,-0.04097696393728256,0.019793955609202385,0.00015980788157321513,-0.009061894379556179,-0.10067301988601685,0.016668595373630524,-0.04458187520503998,0.01020289957523346,-0.004572288133203983,0.002292345277965069,-0.011823457665741444,0.03259305655956268,0.0013435747241601348,0.006482231430709362,-0.033899422734975815,-0.015825243666768074,-0.019463229924440384,0.02235708385705948,-0.000513658975251019,0.005936533212661743,-0.014601556584239006,0.017511947080492973,-0.010120218619704247,0.03538769111037254,-0.015535857528448105,-0.012460105121135712,-0.007387593854218721,0.03069138154387474,-0.006292063742876053,-0.002558993175625801,0.010211167857050896,0.004129942040890455,0.02053808979690075,0.004233293700963259,0.05169248580932617,-0.0021827921736985445,0.034560877829790115,0.022522445768117905,0.015188595280051231,0.022059429436922073,0.01196401659399271,-0.03922411426901817,0.006283795461058617,0.004849271383136511,0.02410993166267872,0.03680981323122978,0.010864351876080036,-0.0015430438797920942,-0.007792733609676361,0.006639325991272926,0.043523553758859634,0.05595885589718819,0.036115288734436035,0.019777420908212662,0.010004464536905289,0.04484645649790764,0.0010066474787890911,-0.004948488902300596,-0.041373834013938904,-0.0009472201927565038,0.019132504239678383,-0.08089560270309448,-0.0072677056305110455,0.013179434463381767,-0.0017332114512100816,-0.00798290129750967,0.022836636751890182,-0.01962859369814396,0.025465909391641617,-0.005605807062238455,0.04544176533818245,-0.026425015181303024,0.0061432369984686375,-0.009549715556204319,-0.009045358747243881,0.01647842675447464,-0.01696624793112278,0.012063234113156796,-0.039554841816425323,-0.004816198721528053,-0.01065764855593443,-0.036446016281843185,-0.002778099151328206,0.015709489583969116,-0.03575149178504944,-0.004020389169454575,-0.01780959963798523,0.012460105121135712,0.00968200620263815,0.00679228687658906,-0.02229093760251999,-0.027152610942721367,-0.006478097289800644,0.007069270126521587,0.015891388058662415,0.024341439828276634,-0.014924014918506145,0.015477980487048626,-0.02854166179895401,0.02060423605144024,-0.010880888439714909,-0.002854579593986273,0.06254030019044876,-0.031187471002340317,-0.0016639656387269497,-0.008507928811013699,-0.02821093611419201,-0.004291171208024025,0.006238320842385292,-0.027317974716424942,-0.016354404389858246,0.0004774857952725142,0.0013001669431105256,0.0015420103445649147,0.0018872057553380728,0.03680981323122978,-0.020306581631302834,0.002195194363594055,-0.0038942997343838215,0.01742926426231861,0.006986588705331087,0.04388735070824623,0.006296197883784771,0.0073173148557543755,0.004936086945235729,0.029236186295747757,-0.04726075753569603,0.006093628238886595,-0.005622343625873327,0.028425907716155052,0.002558993175625801,-0.005597539246082306,0.007069270126521587,-0.03102210722863674,0.0029475963674485683,0.008499660529196262,0.012162451632320881,-0.018603341653943062,0.033254507929086685,0.013510161079466343,-0.006321002263575792,0.009111504070460796,0.021943675354123116,-0.0108560835942626,0.019843565300107002,0.0013497758191078901,0.05506589263677597,0.08387213945388794,0.0032659200951457024,0.006407817825675011,-0.01754501834511757,-0.0029724007472395897,-0.0024453059304505587,-0.007416532374918461,-0.0504688024520874,-0.026557303965091705,-0.0010913960868492723,0.019512839615345,-0.02222479321062565,-0.007767928764224052,-0.027863672003149986,0.007309046573936939,-0.00971507839858532,0.023845350369811058,-0.014254294335842133,-0.014585020020604134,0.009963123127818108,-0.013319993391633034,-0.026358868926763535,0.06234186887741089,-0.025664344429969788,0.00801597349345684,-0.022572055459022522,-0.017511947080492973,-0.007598431780934334,-0.01036826241761446,-0.03879417106509209,0.022522445768117905,-0.0003100557078141719,-0.01265027280896902,-0.02100110612809658,-0.027780991047620773,-0.019876638427376747,-0.013898763805627823,0.0032039089128375053,0.023431943729519844,0.02217518351972103,0.0017053063493221998,-0.010426139459013939,0.0020949430763721466,-0.0068294936791062355,-0.011029714718461037,0.01560200285166502,-0.057116396725177765,-0.007660442963242531,0.016800886020064354,0.02885585092008114,0.007916755974292755,0.00042451792978681624,0.021183006465435028,-0.00556033244356513,-0.006316868122667074,-0.03879417106509209,-0.050931818783283234,-0.016023678705096245,-0.008507928811013699,0.008673291653394699,-0.023564234375953674,0.05202321335673332,0.013237311504781246,-0.005163460969924927,-0.034362439066171646,0.010922228917479515,-0.046136289834976196,0.026557303965091705,-0.017313510179519653,-0.050931818783283234,0.01076513435691595,-0.04967505857348442,-0.02229093760251999,0.021629486232995987,0.02510211057960987,0.013377870433032513,0.024589484557509422,-0.007557091303169727,-0.053015392273664474,-0.00265821092762053,-0.030790599063038826,0.014907478354871273,-0.026425015181303024,-0.0012598596513271332,0.03102210722863674,-0.02215864695608616,0.05017114803195,-0.006230052560567856,-0.04517718404531479,-0.007991168648004532,0.01588311977684498,0.042167577892541885,-0.00013358233263716102,-0.020637307316064835,0.019016750156879425,0.04180377721786499,-0.029616521671414375,0.007333850953727961,-0.003338266396895051,-0.05136176198720932,0.009376084432005882,-0.015444908291101456,-0.0003676743945106864,0.018735632300376892,0.0353546179831028,-0.03251037374138832,-0.0038322885520756245,0.0022386021446436644,0.026491159573197365,0.03102210722863674,0.010756866075098515,0.008313626982271671,-0.02073652483522892,-0.007763795088976622,-0.016817420721054077,-0.0274337287992239,0.036446016281843185,0.024953283369541168,0.00301374145783484,0.010864351876080036,0.020240437239408493,0.005944801494479179,-0.025317082181572914,0.024457193911075592,0.03211350366473198,0.0016825689235702157,-0.01121161412447691,-0.07011392712593079,0.013799546286463737,-0.002193127293139696,0.014097199775278568,-0.008846922777593136,0.0036152496468275785,-0.042035285383462906,0.01112066488713026,-0.008541001006960869,-0.028177862986922264,0.027814064174890518,-0.021877530962228775,0.009987927973270416,0.017115075141191483,0.02612736076116562,0.0007849577232263982,0.02424222230911255,0.009599324315786362,-0.02055462636053562,-0.025201328098773956,-0.005126254167407751,0.0009704743861220777,0.025317082181572914,0.029219649732112885,-0.001974021317437291,0.013162897899746895,-0.003218378173187375,0.02157987654209137,-0.009872173890471458,-0.0025073171127587557,0.032411158084869385,0.015783902257680893,0.008123459294438362,0.004181617870926857,0.0217121671885252,-0.024655628949403763,-0.04213450476527214,0.03687595948576927,-0.0028256410732865334,0.001928546465933323,-0.002718155039474368,-0.04269673675298691,0.0009503207402303815,-0.009574520401656628,0.010574966669082642,0.007069270126521587,0.0037578751798719168,-0.004127874970436096,-0.0005128838238306344,0.001782820327207446,0.004679773934185505,0.013154630549252033,-0.03757048398256302,0.005138656590133905,-0.017082002013921738,0.034494731575250626,-0.0049567571841180325,0.007751392666250467,-0.020901888608932495,-0.04454880580306053,-0.020885352045297623,0.0010190497850999236,-0.012526250444352627,-0.007428934797644615,-0.026408478617668152,-0.009078430943191051,-0.04272980988025665,0.013568038120865822,0.0004482888907659799,-0.00968200620263815,0.013758204877376556,-0.0018365633441135287,0.009789492003619671,0.017644235864281654,0.03222925588488579,-0.06065516546368599,0.008388040587306023,0.018603341653943062,0.02625965140759945,-0.014179880730807781,0.017726918682456017,0.005366030614823103,0.007023795507848263,0.01014502253383398,-0.004229160025715828,-0.01814032532274723,0.013278651982545853,-0.022605128586292267,0.0014231556560844183,0.016354404389858246,0.005022902507334948,0.01807418093085289,0.030410263687372208,0.001822094083763659,-0.0317993126809597,-0.04117539897561073,0.004315975587815046,-0.016999321058392525,-0.04061316326260567,0.014518875628709793,0.00446893647313118,-0.029633058235049248,-0.008011839352548122,0.0004227092722430825,0.018603341653943062,0.004750053398311138,-0.018570270389318466,0.005171729251742363,0.01676781289279461,0.006064689718186855,-0.015072841197252274,-0.007594297640025616,0.019727811217308044,-0.009111504070460796,-0.001557513140141964,0.049972712993621826,-0.008044912479817867,0.02827708050608635,0.007247035391628742,-0.007428934797644615,0.02048848196864128,0.03462702035903931,0.010393067263066769,0.0233988706022501,-0.005068377126008272,-0.038529589772224426,-0.012584127485752106,0.018437979742884636,0.0016836024587973952,0.021216077730059624,0.03542076423764229,0.0370413213968277,-0.027681773528456688,-0.014303903095424175,0.0360160693526268,-0.03816578909754753,-0.015114182606339455,-0.008855191059410572,0.017015857622027397,0.021794850006699562,0.020174290984869003,0.0008299157489091158,0.024655628949403763,0.024738311767578125,-0.021629486232995987,0.010186363942921162,0.003239048644900322,0.01703239418566227,-0.002711953828111291,0.009202453307807446,0.02463909424841404,-0.015668148174881935,-0.035321544855833054,0.03346947953104973,0.025598200038075447,-0.006817091256380081,-0.02040579915046692,-0.006362343207001686,0.009921782650053501,0.05017114803195,0.04478031396865845,0.027218757197260857,0.012261670082807541,-0.01865295134484768,-0.0016236583469435573,-0.024738311767578125,0.002333685988560319,-0.05122946947813034,0.019297868013381958,-0.04954276978969574,0.022456301376223564,0.03634679690003395,0.010260776616632938,-0.004584690555930138,0.0067054713144898415,0.009227258153259754,0.008152398280799389,0.010219436138868332,0.025713954120874405,0.02769831009209156,0.01911596767604351,0.025978533551096916,0.00463429931551218,0.006688935216516256,0.03902567923069,0.05036958307027817,0.025317082181572914,-0.02867395244538784,0.009384352713823318,-0.007838208228349686,0.012526250444352627,0.0015430438797920942,-0.0009890777291730046,-0.005857985932379961,0.016643790528178215,0.03140244260430336,0.04160534217953682,0.021183006465435028,0.002854579593986273,0.012509713880717754,0.03952176868915558,0.02639194205403328,0.0009916614508256316,0.008156532421708107,-0.04200221225619316,0.02548244595527649,0.03545383736491203,-0.020438872277736664,0.026706131175160408,0.03621450811624527,-0.04815371707081795,-0.02503596432507038,-0.03365137800574303,0.010062341578304768,-0.040017858147621155,-0.00038963666884228587,-0.05761248618364334,0.013262116350233555,-0.021695630624890327,0.012716418132185936,0.028789706528186798,-0.031832385808229446,0.002558993175625801,0.00010638786625349894,0.010326921939849854,-0.01306368038058281,-0.015535857528448105,-0.03952176868915558,-0.026176970452070236,0.03393249586224556,-0.010459212586283684,0.04907974973320961,0.001467596972361207,0.019942782819271088,-0.039951711893081665,0.01865295134484768,0.0011647759238258004,-0.010649380274116993,-0.03515618294477463,-0.005308153573423624,0.005452846176922321,-0.0097564198076725,0.012435301207005978,0.010517089627683163,-0.0005040988908149302,0.006800555158406496,0.00870636384934187,-0.0110214464366436,0.028376298025250435,-0.027929818257689476,-0.006482231430709362,0.013047143816947937,-0.015692953020334244,0.012195524759590626,0.0012133513810113072,-0.015750829130411148,0.028955068439245224,0.015775633975863457,0.00820614118129015,0.02386188693344593,-0.038198862224817276,0.014510607346892357,0.03809964656829834,-0.01723082922399044,-0.005762902088463306,-0.009045358747243881,-0.014452730305492878,-0.0017528482712805271,-0.017892280593514442,-0.0012154183350503445,0.002610669005662203,-0.002135250251740217,-0.006920443382114172,0.021480659022927284,0.011798652820289135,0.029467694461345673,0.01589965634047985,-0.021216077730059624,0.010120218619704247,0.026309261098504066,-0.03242769464850426,0.023101218044757843,-0.0033113949466496706,-0.0060812258161604404,0.0066930693574249744,-0.04927818849682808,0.001018016249872744,-0.006833627820014954,0.007346253376454115,0.004741785116493702,0.009078430943191051,-0.004927818663418293,0.02009161002933979,0.024043787270784378,0.0025837975554168224,-0.026689594611525536,-0.02412646822631359,0.0030406129080802202,-0.001075893291272223,-0.03776891902089119,0.026176970452070236,0.02315082587301731,0.031832385808229446,0.018884459510445595,0.015519321896135807,0.007722454145550728,0.028045572340488434,0.018107254058122635,0.012683345004916191,-0.04411885887384415,0.016536304727196693,-0.01095530204474926,0.004382120445370674,-0.016668595373630524,0.010087145492434502,0.04084467142820358,0.010442676022648811,0.010798206552863121,-0.01248490996658802,-0.01265027280896902,-0.009475301951169968,0.002434970811009407,-0.019281331449747086,-0.0176773089915514,-0.020719990134239197,-0.006730275694280863,0.026028143242001534,0.0005906561273150146,0.008623682893812656,0.0008805582183413208,-0.017115075141191483,-0.022638199850916862,0.012468373402953148,-0.0073793260380625725,-0.025366690009832382,0.0021373173221945763,-0.00029171074857003987,-0.012898317538201809,-0.00627139350399375,-0.02320043556392193,0.024027250707149506,-0.050799526274204254,0.01747887395322323,-0.0065731811337172985,-0.009748151525855064,0.011410050094127655,0.006974186282604933,-0.03628065064549446,0.022968927398324013,-0.005456980317831039,0.1722421497106552,-0.010831279680132866,-0.0167430080473423,-0.020719990134239197,-0.012443569488823414,-0.03151819482445717,-0.0033775402698665857,0.013956640847027302,0.015535857528448105,0.017346583306789398,-0.004869941622018814,0.013989713974297047,0.019578984007239342,0.03647908568382263,0.011955748312175274,0.003538769204169512,-0.01938054896891117,0.023613842204213142,0.02210903912782669,-0.010963569395244122,0.012327814474701881,-0.01709853857755661,0.019578984007239342,-0.03062523528933525,-0.015477980487048626,-0.02014121785759926,-0.007639772724360228,0.008755973540246487,-0.004729383159428835,-0.0008557537803426385,0.05304846540093422,-0.006209382321685553,0.0058373152278363705,-0.0065855830907821655,0.016379209235310555,0.006994856987148523,-0.016594180837273598,-0.020637307316064835,0.003420948050916195,-0.009566252119839191,-0.030509481206536293,0.022472837939858437,-0.002556926105171442,0.04524333029985428,-0.0014986025635153055,0.005808376707136631,0.031881995499134064,0.012021893635392189,-0.0062672593630850315,0.00498982984572649,0.03866187855601311,-0.038066573441028595,0.022208256646990776,-0.013427479192614555,0.009971391409635544,-0.02632579579949379,-0.006230052560567856,0.03368445113301277,0.048980534076690674,0.010442676022648811,-0.025532053783535957,0.0015998875023797154,0.0004699927812907845,0.03796735405921936,0.03341986984014511,-0.0060853599570691586,0.014733847230672836,0.030410263687372208,-0.04034858196973801,0.06505382061004639,0.01847105287015438,0.011930943466722965,-0.012823903933167458,0.04193606972694397,-0.009996196255087852,-0.004158880561590195,0.018421443179249763,0.01827261596918106,-0.0148909417912364,0.05936533212661743,-0.040414728224277496,0.03902567923069,0.00965720135718584,-0.004927818663418293,0.010971837677061558,-0.06409471482038498,-0.019000213593244553,0.0010614240309223533,-0.016800886020064354,-0.020042000338435173,0.003859160002321005,-0.029170040041208267,0.009731614962220192,0.03133629634976387,-0.0015668148407712579,-0.008590609766542912,-0.015477980487048626,0.019678201526403427,-0.010814743116497993,0.0377027727663517,-0.021943675354123116,0.0021807251032441854,-0.014378316700458527,0.020438872277736664,0.0116084860637784,-0.022985463961958885,0.0029083224944770336,-0.012203793041408062,-0.015420103445649147,0.00870636384934187,-0.012112842872738838,0.0018479319987818599,0.01949630305171013,0.0028091047424823046,0.05635572597384453,0.00971507839858532,-0.008305358700454235,0.027532946318387985,-0.005221338011324406,-0.025317082181572914,0.010806474834680557,0.005647148005664349,0.008532732725143433,0.0008784911478869617,-0.009557983838021755,0.015387031249701977,-0.0030240765772759914,0.05804242938756943,-0.017511947080492973,-0.010103682056069374,-0.007337985094636679,0.018570270389318466,0.02100110612809658,0.03368445113301277,0.039356403052806854,-0.014105468057096004,0.011294296011328697,0.02698724903166294,0.015974070876836777,-0.01284044049680233,-0.011269491165876389,-0.031187471002340317,0.009020553901791573,0.019182113930583,-0.012245133519172668,0.027152610942721367,-0.0010696921963244677,-0.027648700401186943,-0.015064572915434837,-0.022671272978186607,0.038463443517684937,0.019066359847784042,-0.03561919927597046,-0.004526813514530659,-0.004377986770123243,0.0052172038704156876,0.018867922946810722,0.03697517514228821,-0.002997205127030611,-0.014808260835707188,0.015593735501170158,0.012327814474701881,-0.02093496173620224,-0.013245579786598682,-0.015229936689138412,-0.0174954105168581,-0.005200667772442102,-0.014088931493461132,0.01313809398561716,0.00022995797917246819,0.0037061991170048714,-0.0006976253353059292,-0.003513964591547847,0.004861673340201378,-0.01115373708307743,0.010624575428664684,-0.043788135051727295,-0.013014071621000767,0.02625965140759945,0.023911496624350548,0.023828813806176186,-0.018934069201350212,-0.004295304883271456,-0.0006211449508555233,0.019066359847784042,0.010864351876080036,0.045739419758319855,-0.00015024782624095678,-0.021050715819001198,-0.0011130999773740768,0.012625467963516712,0.03892645984888077,0.024721775203943253,-1.7319517837677267e-06,0.023101218044757843,-0.03194814175367355,-0.0006449158536270261,0.0008536867098882794,0.0055107232183218,0.005932399071753025,-0.00490714842453599,-0.00392530532553792,0.005903460551053286,0.028128253296017647,0.038198862224817276,-0.028260543942451477,0.015205131843686104,-0.0015213399892672896,-0.0330064631998539,-0.007776197046041489,0.0015657813055440784,-0.0029641324654221535,0.007048599887639284,0.004189886152744293,0.016395745798945427,0.02048848196864128,0.016470158472657204,0.020505016669631004,-0.014568484388291836,-0.009839100763201714,-0.004783126059919596,-0.024275295436382294,-0.015229936689138412,-0.002277876017615199,-0.006453292910009623,0.014791724272072315,0.012435301207005978,-0.014907478354871273,-0.006321002263575792,0.0033486017491668463,0.004303573165088892,-0.045210257172584534,-0.03257651999592781,-0.006713739596307278,0.0018872057553380728,0.017115075141191483,0.0024080993607640266,-0.03839729726314545,-0.019149040803313255,0.001589552266523242,0.012732954695820808,-0.030972497537732124,0.01265027280896902,-0.008524465374648571,0.021050715819001198,0.022390156984329224,0.034494731575250626,0.019909709692001343,0.011401781812310219,-0.0039087687619030476,-0.018702561035752296,0.017578091472387314,0.008846922777593136,-0.016751276329159737,-0.004704578779637814,-0.012443569488823414,0.007131281308829784,0.016627253964543343,-0.03406478837132454,0.0039563109166920185,-0.02548244595527649,-0.008268152363598347,-0.01072379294782877,0.009028822183609009,-0.007602565921843052,-0.002819439861923456,-0.0317993126809597,0.013344797305762768,-0.009384352713823318,-0.0009224157547578216,-0.015552394092082977,-0.018801778554916382,0.017065465450286865,-0.02353116124868393,-0.003015808528289199,-0.03472623974084854,0.025664344429969788,0.019793955609202385,0.020240437239408493,-0.00932647567242384,0.012741222977638245,-0.054768241941928864,0.0009198319166898727,0.007540554739534855,-0.018801778554916382,0.014618093147873878,-0.005382567178457975,0.008789045736193657,-0.017445800825953484,0.002796702552586794,-0.015998873859643936,0.0021662558428943157,-0.010798206552863121,-0.021827921271324158,0.03614836186170578,0.003937707282602787,0.03313875570893288,-0.05794321000576019,-0.023812279105186462,-0.0022013955749571323,0.005473516881465912,-0.017908817157149315,-0.009648934006690979,-0.042035285383462906,-0.003342400537803769,0.020075073465704918,0.05218857526779175,0.014518875628709793,0.0021249151322990656,0.024820992723107338,0.01891753263771534,-0.028690489009022713,0.002377093769609928,0.016709934920072556,0.05265159159898758,0.029732275754213333,0.05387527868151665,0.015775633975863457,-0.02346501685678959,0.0326426662504673,0.004671506118029356,-0.021480659022927284,0.006932845804840326,-0.011327368207275867,0.03512310981750488,-0.018752168864011765,-0.00887999590486288,0.015891388058662415,-0.006746812257915735,-0.03912489488720894,-0.011013179086148739,-0.013055412098765373,0.0240603219717741,0.04094389081001282,0.014758652076125145,0.018239542841911316,0.0037785456515848637,0.017991499975323677,-0.0015719824004918337,-0.014808260835707188,-0.030989034101366997,-0.038132719695568085,0.0004201254923827946,0.002833909122273326,-0.011286027729511261,0.007598431780934334,-0.004315975587815046,-0.022935854271054268,0.0400509275496006,0.019661666825413704,-0.00627139350399375,-0.007428934797644615,-0.057579413056373596,-0.014212953858077526,3.3427882044634316e-06,-0.024887138977646828,0.004253964405506849,-0.04752533882856369,-0.03952176868915558,0.014477534219622612,-0.02237362042069435,0.003516031662002206,0.0013549434952437878,-0.017015857622027397,0.0021662558428943157,-0.042928244918584824,0.002135250251740217,-0.038595736026763916,0.02184445783495903,-0.003575975773856044,0.002738825511187315,0.006188712082803249,0.012509713880717754,-0.00414234446361661,-0.0037351378705352545,-0.006941113620996475,0.03239462152123451,-0.011261222884058952,0.007627370301634073,0.001414887490682304,0.041969139128923416,-0.0029041883535683155,-0.0018417309038341045,0.0035739087034016848,0.007643906865268946,0.024721775203943253,-0.032543446868658066,0.019132504239678383,-0.003974914085119963
0.019063645973801613,-0.010635982267558575,0.06033065542578697,0.027851849794387817,-0.03986990824341774,-0.02229349873960018,-0.006887849885970354,0.05978984013199806,-0.018387628719210625,-0.030916456133127213,0.0079018734395504,0.016810258850455284,-0.01349027082324028,-0.03136713430285454,0.008127212524414062,-0.017125733196735382,-0.017906907945871353,-0.013986015692353249,-0.0358438603579998,0.016134243458509445,-0.02351032756268978,0.02412625215947628,0.04660002142190933,-0.010170281864702702,-0.008472731336951256,-0.008592911995947361,-0.02438163571059704,-0.047140832990407944,0.03316984325647354,-0.04188293218612671,0.0018177313031628728,-0.03737616166472435,0.02909872494637966,-0.01403859443962574,-0.045428261160850525,0.03332006558775902,0.04545830562710762,0.0352429561316967,-0.029804784804582596,0.010538334958255291,-0.011627472005784512,-0.025298012420535088,0.018267448991537094,0.04164257273077965,0.0218728668987751,0.016825281083583832,-0.026529863476753235,0.008945941925048828,-0.004814734682440758,0.018432697281241417,0.051377199590206146,0.01440664753317833,0.009291461668908596,0.08094162493944168,-0.04611929878592491,-0.02085133083164692,0.01659994386136532,0.031757719814777374,-0.021302009001374245,0.02468208782374859,0.015713611617684364,-0.03398105874657631,0.036745212972164154,-0.008622957393527031,-0.006805225741118193,-0.02570362202823162,-0.020806264132261276,-0.01191290095448494,-0.026154300197958946,0.03623444586992264,-0.019949976354837418,0.011687561869621277,0.03434160351753235,0.00422509852796793,0.00042157096322625875,-0.0013445202494040132,-0.01014774851500988,-0.03797706589102745,0.018582923337817192,-0.05155747011303902,0.03196803480386734,0.0038495343178510666,-0.009914898313581944,-0.02095649018883705,-0.03806719928979874,-0.04759151116013527,-0.0942215770483017,0.0014647009084001184,-0.030706139281392097,0.020580925047397614,-0.005960206035524607,-0.00793191883713007,-0.013685564510524273,0.04119189456105232,0.011597426608204842,-0.005761156789958477,-0.040380675345659256,0.0017595188692212105,0.010200327262282372,-0.023104717954993248,0.014001037925481796,0.020100202411413193,0.002341643674299121,-0.04699061065912247,0.015345558524131775,0.06573878228664398,-0.04413631930947304,-0.079018734395504,-0.07571376860141754,0.00953933410346508,-0.04945430904626846,-0.032178353518247604,0.02145223505795002,0.025989051908254623,-0.03136713430285454,-0.0036880418192595243,-0.03380078822374344,-0.005877581890672445,0.009389108046889305,-0.01901857741177082,0.0036504853051155806,0.012310998514294624,0.04065108299255371,0.016629988327622414,-0.021286986768245697,-0.010312996804714203,0.006523552350699902,-0.01427895575761795,-0.0001749895018292591,0.01877821609377861,0.03548331931233406,-0.043475326150655746,0.035513363778591156,0.05152742564678192,-0.03944927826523781,0.06090151146054268,-0.05209828540682793,-0.00037885052734054625,0.013137239962816238,0.0358438603579998,0.008202324621379375,0.032178353518247604,0.005295456852763891,0.0038420232012867928,0.009877341799438,-0.03557345271110535,0.01568356715142727,-0.02546326071023941,0.027731670066714287,-0.024036116898059845,0.034251466393470764,-0.026830315589904785,-0.01300954818725586,0.018612967804074287,0.014106196351349354,-0.04729105904698372,0.010793718509376049,0.04461704194545746,-0.016449717804789543,0.043715689331293106,-0.01738111674785614,-0.003894602181389928,-0.00832250528037548,0.053510405123233795,-0.006204322911798954,0.010628470219671726,0.012513803318142891,-0.0173210259526968,-0.07667521387338638,-0.004814734682440758,0.00029857363551855087,-0.011995525099337101,-0.04065108299255371,0.04933413118124008,-0.05230860039591789,0.014076150953769684,0.004807223565876484,-0.028302527964115143,-0.01816229149699211,0.005768667906522751,-0.006001518107950687,0.0007539453799836338,-0.031246952712535858,0.03845778852701187,-0.06267417222261429,-0.01969459280371666,0.015608453191816807,0.02133205346763134,0.029143791645765305,-0.053810857236385345,0.018372606486082077,0.007841783575713634,0.0020787485409528017,0.027025608345866203,0.02406616136431694,-0.04771169275045395,-0.011424667201936245,-0.011680050753057003,0.026229413226246834,0.016915418207645416,-0.00902856606990099,0.018072156235575676,-0.00950928870588541,-0.013197330757975578,-0.07132717967033386,-0.0013989771250635386,-0.016194334253668785,-0.00908865686506033,-0.0045518395490944386,-0.0030608493834733963,0.07937927544116974,-0.001121059525758028,-0.009366574697196484,9.923113975673914e-05,0.012964480556547642,-0.005118941888213158,0.00021242856746539474,0.06066115200519562,0.009621958248317242,0.027446242049336433,-0.032478801906108856,0.018733149394392967,0.002674018032848835,0.02941419743001461,0.028873385861516,0.008052099496126175,0.015150264836847782,-0.0016609332524240017,-0.0012712852330878377,1.6210882449740893e-06,0.030706139281392097,0.001828998327255249,0.014631986618041992,0.005948938895016909,-0.004826001822948456,0.00920132640749216,-0.044647086411714554,-0.016870349645614624,0.017396138980984688,0.017456229776144028,-0.03476223349571228,0.0024299011565744877,-0.011935434304177761,0.006606176495552063,-0.009576890617609024,-0.012070637196302414,-0.02899356558918953,-0.01949930004775524,0.0002171231317333877,-0.010928922332823277,-0.012664029374718666,-0.009216348640620708,-0.05525302514433861,-0.0019454231951385736,-0.001548263942822814,0.019784728065133095,-8.145051106112078e-05,0.01903359964489937,0.0045518395490944386,-0.015758680179715157,0.024501817300915718,-0.0650177001953125,-0.05260905250906944,0.00899101048707962,-0.05426153540611267,-0.010801230557262897,0.03265907242894173,-0.012010547332465649,0.047861918807029724,0.055643610656261444,0.03151736035943031,-0.004728354979306459,0.07198817282915115,-0.03494250401854515,-0.017906907945871353,0.033019617199897766,0.028227414935827255,0.010748650878667831,-0.0017895640339702368,0.03548331931233406,-0.030285507440567017,0.006711334455758333,-0.034912459552288055,-0.021857844665646553,-0.014594430103898048,-0.008209836669266224,0.060751285403966904,0.037165846675634384,0.018567901104688644,-0.030661072582006454,0.030976545065641403,-0.015593430958688259,0.0022045625373721123,-0.003853290108963847,-0.011229373514652252,-0.017290981486439705,-0.02588389441370964,-0.028467776253819466,0.006910383701324463,0.01774165965616703,0.036865394562482834,-0.015172799117863178,-0.030165327712893486,-0.014324023388326168,-0.05627455934882164,0.049935031682252884,0.030405689030885696,-0.01696048490703106,0.04302464798092842,0.021286986768245697,-0.01191290095448494,-0.017215868458151817,-0.013437692075967789,0.023961003869771957,0.0258238036185503,-0.025508329272270203,0.01491741556674242,0.027566421777009964,0.049003634601831436,-0.052909500896930695,0.02053585834801197,-0.06784193962812424,0.02990994229912758,-0.0413421206176281,0.006741379853338003,0.03332006558775902,0.01786183938384056,-0.03325997665524483,0.025433216243982315,-0.004412881098687649,-0.01714075542986393,-0.0716877207159996,-0.005922649521380663,-0.011980501934885979,0.01312221772968769,-0.03530304878950119,0.042814332991838455,-0.020310519263148308,0.01895848661661148,0.03398105874657631,-0.023420192301273346,-0.033019617199897766,0.02151232399046421,-0.010996523313224316,-0.028287505730986595,0.019228894263505936,0.0722886249423027,0.01467705424875021,0.014489271678030491,0.0037706659641116858,-0.003962203860282898,0.017816772684454918,-0.006027807481586933,0.020926443859934807,0.03596404194831848,-0.028182346373796463,0.03335011377930641,-0.011837787926197052,-0.022023092955350876,0.03761652484536171,-0.01756138727068901,0.017831794917583466,0.027115745469927788,-0.006354548502713442,0.002493747044354677,-0.006211834028363228,-0.04635966196656227,0.013850812800228596,0.03851787745952606,0.012814254499971867,-0.03731607273221016,0.007315993309020996,0.048522911965847015,-0.02490742690861225,-0.04702065512537956,-0.023961003869771957,0.06934420019388199,0.03148731216788292,0.03629453852772713,0.0401102714240551,0.0474112406373024,0.0059677171520888805,-0.013242398388683796,-0.0004729763313662261,0.05888848751783371,-0.04939422011375427,0.001205561449751258,0.017516320571303368,0.004277677740901709,-0.04660002142190933,0.05597410723567009,-0.020085180178284645,0.024877380579710007,-0.048402730375528336,-0.019063645973801613,-0.02127196453511715,0.006245634984225035,0.06886347383260727,-0.04383586719632149,0.021767709404230118,-0.012183306738734245,0.001073175109922886,-0.006613687612116337,0.00633577024564147,-0.01678021438419819,0.03172767534852028,-0.020040113478899002,0.007849294692277908,0.015345558524131775,-0.05450189486145973,-0.021677572280168533,-0.04897359013557434,0.0005830636364407837,0.0024148786906152964,0.03536313772201538,0.022924447432160378,0.009006032720208168,0.04236365482211113,-0.0261242538690567,-0.005637220572680235,-0.07300970703363419,-0.009659514762461185,-0.056665144860744476,-0.021166805177927017,-0.011687561869621277,-0.007721602451056242,0.03015030361711979,-0.02083630859851837,-0.014767189510166645,-0.04915386065840721,0.05450189486145973,0.029624514281749725,-0.009193814359605312,-0.021076669916510582,-0.013174796476960182,-0.024997562170028687,-0.013903391547501087,-0.015999039635062218,-0.0498148538172245,0.017951974645256996,-0.02881329506635666,0.0258238036185503,-0.01230348739773035,-0.021497301757335663,0.007203323766589165,-0.028227414935827255,0.05516288802027702,0.0010647248709574342,-0.021181827411055565,-0.022158294916152954,-0.0027003076393157244,0.012686562724411488,-0.04389595985412598,0.010808741673827171,-0.0018496543634682894,0.0012553237611427903,-0.02438163571059704,-0.03389092534780502,0.03575372323393822,-0.02011522464454174,-0.004690798465162516,0.013084661215543747,0.011777697131037712,0.03824746981263161,-0.017756681889295578,-0.008773182518780231,0.012446202337741852,0.03446178138256073,0.006718846037983894,-0.01646474003791809,0.020445721223950386,-0.04179279878735542,-0.011109192855656147,0.02133205346763134,-0.053089775145053864,-0.027386151254177094,0.0224887914955616,-0.0026946740690618753,-0.03605417534708977,0.004371569026261568,-0.017306003719568253,0.016389627009630203,0.012874345295131207,0.009854808449745178,-0.05495257303118706,-0.016434695571660995,0.05450189486145973,0.029579445719718933,-0.033951014280319214,-0.008097167126834393,-0.0004725068574771285,0.04819241538643837,0.022158294916152954,-0.01676519215106964,-0.0001706470357021317,-0.02716081216931343,0.01610419899225235,-0.013895880430936813,0.01835758425295353,-0.029939988628029823,0.013723121024668217,-0.001990491058677435,0.013084661215543747,-0.011011546477675438,-0.0013473370345309377,0.037586476653814316,-0.02813727967441082,-0.06102169305086136,-0.02758144401013851,0.02351032756268978,0.04729105904698372,0.006632465869188309,0.0016064763767644763,-0.028062166646122932,-0.013264931738376617,-0.01774165965616703,-0.04176275432109833,-0.02472715452313423,-0.05317990854382515,-0.02879827283322811,-0.016134243458509445,-0.013918413780629635,-0.012310998514294624,-0.05158751457929611,0.03557345271110535,-0.0027059409767389297,0.002972591668367386,-0.0880923718214035,0.03350033983588219,-0.02606416493654251,0.007954452186822891,-0.008555355481803417,-0.0334102027118206,-0.006549841724336147,0.021797753870487213,-0.013189819641411304,0.01787686161696911,-0.011867832392454147,-0.0001429491676390171,-0.019589435309171677,0.034612007439136505,0.026725158095359802,0.014872347004711628,-0.026965519413352013,-0.019288983196020126,0.016509808599948883,0.029819807037711143,-0.009434175677597523,-0.006662511266767979,0.013317511416971684,-0.0179219301789999,-0.03304966166615486,0.015000039711594582,0.032538894563913345,0.0016900395276024938,0.01103407982736826,0.013505293056368828,-0.017245914787054062,0.0066099320538342,0.006151743698865175,0.01114674936980009,-0.03154740482568741,0.037526387721300125,0.01568356715142727,-0.016855327412486076,0.012971991673111916,-0.024712132290005684,0.02200806885957718,-0.00657613156363368,-0.007804226595908403,-0.00712445518001914,0.0042964559979736805,0.006561108864843845,0.010312996804714203,0.018988532945513725,-0.0008487753802910447,-0.003913380205631256,0.031096726655960083,0.0273410826921463,-0.029203882440924644,-0.015758680179715157,0.004979982972145081,-0.037826839834451675,-0.004052339121699333,-0.032178353518247604,0.0032448756974190474,0.0104857562109828,0.013392624445259571,-0.03993000090122223,-0.0030852609779685736,0.015908904373645782,-0.018432697281241417,0.015503295697271824,0.02595900557935238,0.012739142403006554,0.014729632996022701,-0.043174874037504196,-0.00947924330830574,0.01294194720685482,-0.01939414255321026,0.003073994070291519,-0.032538894563913345,-0.02163250558078289,-0.052909500896930695,-0.013753165490925312,0.011995525099337101,0.020941466093063354,-0.023900913074612617,-0.006906628143042326,-0.025358103215694427,-0.015262934379279613,0.020370610058307648,-0.015195332467556,-0.020520834252238274,-0.01907866820693016,-0.007469974458217621,0.009066122584044933,-0.009524310939013958,0.04951440170407295,0.012341043911874294,-0.013452714309096336,-0.007646489888429642,3.8436661270679906e-05,-0.03021039441227913,0.017606455832719803,0.08959462493658066,-0.043715689331293106,0.012889367528259754,-0.040320586413145065,0.012145750224590302,-0.008878340944647789,-0.032358624041080475,0.004251388367265463,-0.010275440290570259,-0.02085133083164692,-0.005659754388034344,0.02595900557935238,0.006778936367481947,-0.0033350111916661263,-0.01835758425295353,0.026049142703413963,0.0014055494684726,0.00829997193068266,0.019304007291793823,0.041312076151371,0.011214351281523705,0.014451715163886547,0.006816492415964603,0.004337768070399761,-0.023194853216409683,0.02091142162680626,-0.02059594728052616,0.007143233437091112,-0.001172699616290629,0.020686082541942596,0.010801230557262897,-0.026274479925632477,-0.018072156235575676,0.01556338556110859,-0.024817291647195816,0.009276438504457474,0.07427160441875458,0.023119740188121796,-0.018132245168089867,0.01111670397222042,0.022699108347296715,-0.04819241538643837,-0.011905388906598091,-0.025853848084807396,0.030916456133127213,0.08094162493944168,-0.0007511286530643702,-0.007699068635702133,-0.040080226957798004,0.03659498691558838,0.0027848095633089542,-0.0006347037269733846,-0.04903367906808853,-0.053810857236385345,0.023375123739242554,0.019243916496634483,-0.01840265281498432,0.008104678243398666,-0.03905868902802467,0.03680530562996864,-0.015848815441131592,0.01498501654714346,-0.024652043357491493,-0.009884852916002274,0.02224843017756939,-0.02049078978598118,-0.01787686161696911,0.034912459552288055,-0.011221862398087978,-0.01008765771985054,-0.04053090140223503,0.016690079122781754,-0.020520834252238274,-0.024051139131188393,-0.06315489858388901,0.020325541496276855,0.009449198842048645,-0.020265450701117516,-0.013137239962816238,-0.011199328117072582,-0.04563857614994049,-0.030390664935112,0.01676519215106964,0.04732110723853111,0.018492788076400757,-0.002450557192787528,-0.020505812019109726,0.004059850238263607,0.012220863252878189,-0.02735610492527485,-0.0015510807279497385,-0.005674777086824179,0.0048673138953745365,0.022083181887865067,0.02595900557935238,0.02552335150539875,0.0008717786986380816,0.008570377714931965,0.012446202337741852,0.030706139281392097,-0.026394661515951157,-0.004506771918386221,-0.0018965998897328973,0.008502776734530926,-0.01352031622081995,-0.01403859443962574,0.018793238326907158,-0.014594430103898048,0.019424187019467354,-0.016179312020540237,0.019123734906315804,-0.04641975089907646,-0.026214390993118286,0.00046194411697797477,-0.029444243758916855,0.018612967804074287,-0.015968995168805122,-0.00920132640749216,0.03256893903017044,0.01756138727068901,0.001096647814847529,0.031817808747291565,-0.027145789936184883,-0.012626472860574722,-0.030060168355703354,-0.04137216508388519,0.011777697131037712,-0.023930959403514862,-0.014346557669341564,0.017396138980984688,-0.0006614626618102193,0.04656997695565224,-0.05975979566574097,-0.043114785104990005,-0.009576890617609024,-0.019048621878027916,0.031006591394543648,-0.010080146603286266,-0.031096726655960083,0.0023153540678322315,0.030540890991687775,-0.030285507440567017,0.015090174973011017,0.012649006210267544,-0.021482279524207115,-0.011319508776068687,-0.019304007291793823,-0.01291190180927515,0.0028223658446222544,0.03256893903017044,-0.010598425753414631,-0.04350537061691284,0.01634456031024456,0.02795700915157795,0.044346634298563004,0.03458196297287941,0.008758160285651684,-0.0011670661624521017,-0.006080386694520712,-0.0170205757021904,-0.01103407982736826,0.0553131140768528,0.04666011407971382,-0.021857844665646553,0.009967477060854435,-0.01616428792476654,0.008390107192099094,-0.00613672100007534,0.03063102625310421,0.011492268182337284,0.0075112865306437016,-0.029023611918091774,-0.06832266598939896,-0.0033425225410610437,-0.0058400253765285015,0.001400854904204607,-0.01206312607973814,0.0016308880876749754,-0.03725598007440567,-0.00031336149550043046,-0.029684605076909065,-0.007026808802038431,0.009914898313581944,-0.005028806161135435,0.02326996624469757,0.019349073991179466,0.030180349946022034,-8.004214760148898e-05,0.010102680884301662,-0.014767189510166645,-0.04095153510570526,0.01264149509370327,-0.023930959403514862,0.02302960492670536,0.0206560380756855,0.030555913224816322,-0.03051084652543068,-0.022593950852751732,-0.042694151401519775,0.006737624295055866,-0.008803227916359901,-0.006929161958396435,-0.0069704740308225155,0.032598983496427536,0.02783682756125927,0.001614926615729928,0.016930440440773964,0.0017567022005096078,-0.027070676907896996,0.014001037925481796,0.0012562626507133245,0.015060129575431347,-0.015428182668983936,-0.04470717906951904,0.00869055837392807,0.013159774243831635,0.035212911665439606,0.015953972935676575,-0.0019642014522105455,-0.018192335963249207,-0.027145789936184883,-0.002788565121591091,0.05185792222619057,0.002339765662327409,-0.00017275959544349462,-0.02783682756125927,-0.02005513571202755,0.025132764130830765,-0.007060609292238951,-0.0006900994339957833,-0.007346038240939379,-0.0007469035335816443,-0.040921490639448166,0.01427895575761795,-0.0034983817022293806,-0.006816492415964603,-0.02193295769393444,-0.031036635860800743,-0.025478284806013107,0.026935473084449768,0.02909872494637966,-0.003363178577274084,0.018327539786696434,-0.003823244944214821,-0.007879340089857578,0.0130696389824152,0.026635022833943367,-0.036985576152801514,-0.011109192855656147,0.00012663559755310416,0.014211353845894337,-0.008420152589678764,-0.0033462780993431807,-0.0010525190737098455,0.02035558596253395,0.02655990980565548,0.003291821340098977,-0.011830276809632778,0.027296015992760658,-0.0016750169452279806,0.03208821639418602,0.05230860039591789,0.031877901405096054,-0.007954452186822891,0.005336768925189972,0.0050137839280068874,0.0007614566711708903,0.010598425753414631,-0.014361579902470112,-0.024832313880324364,-0.026770224794745445,0.010823763906955719,0.023961003869771957,0.006658755708485842,0.005663509946316481,-0.010080146603286266,0.04173270985484123,0.05900866910815239,0.005734867416322231,-0.02454688400030136,-0.012836788780987263,-0.02436661347746849,0.011582404375076294,-0.006024051923304796,0.05963961407542229,0.01726093702018261,-0.01005761232227087,0.017606455832719803,-0.0070831431075930595,0.029429221525788307,0.02911374717950821,0.0012656517792493105,0.018627990037202835,0.0601503811776638,0.012806743383407593,0.002018658211454749,0.013340044766664505,0.025989051908254623,-0.01230348739773035,-0.012821766547858715,-0.03905868902802467,0.04023044928908348,0.03968963772058487,0.017290981486439705,-0.005201566033065319,-0.05122697353363037,0.028092211112380028,-0.032779254019260406,-0.025989051908254623,0.008833273313939571,0.013377601280808449,0.005502017214894295,-0.00993743259459734,0.0033800790552049875,0.024291500449180603,0.027025608345866203,0.011379599571228027,0.0028862119652330875,-0.012829277664422989,-0.001900355564430356,-0.0004919892526231706,0.0007384533528238535,0.0346420519053936,-0.011957968585193157,-0.04416636377573013,0.016134243458509445,0.022473769262433052,-0.014136241748929024,-0.030390664935112,0.013362579047679901,-0.023059649392962456,0.039659593254327774,0.039839863777160645,0.010140236467123032,-0.00044668681221082807,-0.010275440290570259,0.013445203192532063,-0.016554875299334526,-0.019063645973801613,-0.037225935608148575,0.04212329536676407,-0.02266906201839447,-0.012108193710446358,0.011071636341512203,0.03803715482354164,-0.022443724796175957,0.008217347785830498,-0.04176275432109833,-0.017456229776144028,0.004777178168296814,0.015608453191816807,-0.010230372659862041,0.02637963928282261,0.024141274392604828,0.001894721994176507,-0.030465777963399887,0.020265450701117516,0.015398137271404266,-0.012806743383407593,-0.03719589114189148,0.007646489888429642,0.03374069929122925,-0.0029613247606903315,-0.025298012420535088,-0.03172767534852028,0.0016891005216166377,0.021617483347654343,0.02692045085132122,0.006226856727153063,0.03353038430213928,-0.011574892327189445,0.008495264686644077,0.005941427778452635,0.0009525250061415136,0.004683287348598242,-0.00021407166786957532,-0.028272483497858047,0.05465212091803551,0.021677572280168533,-0.023976026102900505,0.007361060939729214,0.01786183938384056,-0.0173210259526968,0.018447719514369965,-0.0029200126882642508,-0.000617333862464875,-0.019859841093420982,-0.012799232266843319,-0.024456748738884926,0.01309217233210802,-0.030646048486232758,0.03839769586920738,0.05182787775993347,-0.04684038460254669,0.01191290095448494,0.04389595985412598,-0.004641975276172161,-0.004912381526082754,0.01811722293496132,-0.011988013051450253,-0.02418634295463562,0.023300010710954666,-0.03779679536819458,0.015833791345357895,-0.006718846037983894,-0.00984729640185833,-0.0064146388322114944,0.005194054450839758,-0.01454936247318983,-0.021617483347654343,-0.0034570696298033,-0.023495305329561234,-0.0150451073423028,0.02903863415122032,0.05540325120091438,-0.011687561869621277,-0.023480281233787537,0.015593430958688259,0.012566382065415382,-0.006737624295055866,0.023961003869771957,-0.020040113478899002,0.005994006525725126,0.021963002160191536,0.0031885411590337753,-0.002779175993055105,0.0013445202494040132,-0.009614447131752968,0.04143225774168968,0.03196803480386734,0.007101921364665031,0.026454750448465347,-0.024937471374869347,0.025808781385421753,0.05038570985198021,-0.029879897832870483,-0.00956937950104475,0.0035697389394044876,-0.0026101721450686455,-0.025027606636285782,0.004660753533244133,0.028272483497858047,-0.0036936751566827297,0.019153781235218048,-0.03737616166472435,0.020325541496276855,0.004799711983650923,0.027190856635570526,0.03374069929122925,-0.021302009001374245,0.016675056889653206,-0.0028242438565939665,-0.024156298488378525,-0.0057123336009681225,5.7596309488872066e-05,-0.013970993459224701,0.001928522833622992,-0.05269918590784073,0.020580925047397614,-0.014196331612765789,0.012904390692710876,0.035333093255758286,0.020145270973443985,-0.04266410693526268,0.05152742564678192,0.017636500298976898,-0.015728633850812912,-0.023315032944083214,-0.011447200551629066,0.011927923187613487,-0.019153781235218048,-0.045247990638017654,0.01939414255321026,0.03446178138256073,-0.010635982267558575,0.007308481726795435,0.003618562361225486,0.006568619981408119,0.011266930028796196,-0.014429181814193726,0.009772184304893017,0.0007168584270402789,0.003472092328593135,-0.016855327412486076,0.031637538224458694,-0.009238882921636105,-0.0038101000245660543,0.0003382426220923662,0.008277437649667263,-0.0006924467161297798,0.017516320571303368,-0.02990994229912758,0.01684030517935753,-0.020280472934246063,0.0063996161334216595,-0.0334402471780777,0.010801230557262897,0.014286466874182224,0.011972990818321705,-0.002174517372623086,0.004927404224872589,-0.006718846037983894,-0.025658555328845978,-0.03629453852772713,0.01373063214123249,-0.012288465164601803,-0.0029575692024081945,-0.0070981658063828945,-0.006474729161709547,0.012048103846609592,-0.00609540892764926,-0.0008623895701020956,0.022173317149281502,-0.031817808747291565,0.026109231635928154,0.007556354161351919,0.014316512271761894,0.008562866598367691,-0.02588389441370964,-0.00929897278547287,0.008637979626655579,0.0006093531264923513,0.15875855088233948,0.0035134044010192156,-0.014384114183485508,0.028227414935827255,-0.002565104281529784,-0.03620440140366554,0.022473769262433052,0.013182307593524456,0.004822245799005032,0.03671516850590706,0.011154260486364365,-0.008810739032924175,0.015758680179715157,0.024336569011211395,-0.009802228771150112,0.017275959253311157,-0.03003012388944626,-0.016209356486797333,-0.010673537850379944,-0.02212825044989586,0.008615445345640182,-0.028542889282107353,-0.0009182547801174223,0.007090654689818621,-0.026695111766457558,-0.019709616899490356,-0.0003671141457743943,0.019529344514012337,-0.0068427822552621365,-0.010605936869978905,0.05194805935025215,0.0004882336361333728,0.025237923488020897,-0.019649526104331017,0.023059649392962456,0.026049142703413963,-0.0559140183031559,-0.009629469364881516,0.014128729701042175,0.03112677112221718,-0.02881329506635666,-0.008194813504815102,0.002981980796903372,0.03596404194831848,-0.022939469665288925,0.017531342804431915,-0.003800711128860712,-0.03019537217915058,0.0066099320538342,0.04107171669602394,0.020641015842556953,-0.05116688460111618,-0.013362579047679901,-0.017170801758766174,0.0002455251815263182,-0.0035547164734452963,0.008885852061212063,0.004364057444036007,0.034191377460956573,0.022774221375584602,-0.021497301757335663,-0.03003012388944626,-0.013843300752341747,0.0022270965855568647,0.04413631930947304,0.025478284806013107,-0.00872060377150774,0.012754164636135101,-0.017756681889295578,0.011732629500329494,0.005945183336734772,0.006594909820705652,-0.017306003719568253,0.023675575852394104,-0.029924966394901276,-0.03434160351753235,0.003823244944214821,0.015593430958688259,-0.028648046776652336,0.06039074435830116,-0.017666546627879143,0.029819807037711143,0.017516320571303368,0.004942426458001137,0.0032542648259550333,-0.04720092564821243,-0.00932901818305254,-0.01829749345779419,0.009066122584044933,-0.04789196327328682,-0.0019266450544819236,-0.006587398238480091,0.0065423306077718735,0.0005971472710371017,-0.0032223418820649385,-0.02995501086115837,-0.005689799785614014,-0.009772184304893017,0.011402132920920849,0.026469774544239044,-0.01367054134607315,0.028708137571811676,-0.009704582393169403,0.022804265841841698,0.0038194891531020403,-0.021377122029662132,-0.017230890691280365,0.00817228015512228,0.004142474383115768,0.016134243458509445,-0.037165846675634384,0.0015736145433038473,0.0013792599784210324,0.003235486801713705,0.042934514582157135,0.019123734906315804,-0.023300010710954666,-0.007841783575713634,-0.016690079122781754,0.00953933410346508,-0.009704582393169403,-0.00189096643589437,-0.007819249294698238,-0.04485740512609482,-0.015908904373645782,-0.030315551906824112,0.0037556432653218508,0.05705573409795761,-0.030555913224816322,-0.022759199142456055,0.02903863415122032,0.0009680170333012938,0.01708066649734974,0.032719165086746216,0.05098661407828331,-0.002336010104045272,-0.003261776175349951,0.005479483399540186,0.0027960764709860086,-0.015315513126552105,-0.02480226755142212,-0.014061128720641136,-0.017471252009272575,0.0009370329789817333,0.0027341083623468876,0.024396657943725586,0.012866834178566933,0.007357305381447077,-0.020010067149996758,0.015082663856446743,-0.0022496304009109735,0.017336050048470497,-0.0358438603579998,-0.026049142703413963,0.0002157147682737559,0.03593399375677109,0.018868351355195045,-0.0016797115094959736,-0.031156817451119423,-0.0014402891974896193,-0.02053585834801197,0.017591433599591255,-0.016449717804789543,-0.029143791645765305,0.042513880878686905,-0.043595507740974426,-0.006339525803923607,0.0273410826921463,-0.012536337599158287,-0.01257389411330223,0.003857045667245984,0.001187722198665142,-0.0316074937582016,-0.009862319566309452,0.003704942064359784,0.021362099796533585,-0.014662031084299088,-0.01945423148572445,0.004240121226757765,-0.023315032944083214,0.023630507290363312,-0.0078117381781339645,-0.017411163076758385,0.006568619981408119,0.015893882140517235,-0.01303959358483553,0.030721161514520645,-0.008788205683231354,-0.01175516378134489,-0.017411163076758385,-0.008517798967659473,0.02472715452313423,-0.001073175109922886,0.018267448991537094,0.040500856935977936,-0.01491741556674242,0.00466450909152627,0.0047133322805166245,0.0003922299947589636,0.011086658574640751,0.020040113478899002,-0.009283950552344322,-0.008968476206064224,0.01433904655277729,0.04170266166329384,-0.028092211112380028,-0.0021163050550967455,-0.026229413226246834,-0.027115745469927788,-0.010035078972578049,0.03015030361711979,0.021347075700759888,-0.0022101961076259613,-0.006102920509874821,-0.015968995168805122,0.03713580220937729,0.03025546297430992,0.025192854925990105,0.010741139762103558,-0.011957968585193157,0.0003978634485974908,0.000545976625289768,-0.026770224794745445,-0.008465220220386982,-0.002247752621769905,-0.007691557519137859,0.021106714382767677,0.013325022533535957,0.013159774243831635,-0.014016061089932919,0.01066602673381567,-0.0020637260749936104,-0.0027341083623468876,0.012686562724411488,-0.008149745874106884,0.0005323624354787171,0.0005210955278016627,0.011589915491640568,-0.02322489768266678,0.015022573061287403,-0.00654608616605401,-0.02728099375963211,0.012416156940162182,-0.008525310084223747,0.0037349872291088104,0.038127291947603226,0.012536337599158287,0.006140476558357477,0.012896878644824028,0.02223340794444084,-0.04416636377573013,-0.004134963266551495,-0.021422188729047775,-0.014188820496201515,-0.014669543132185936,0.0009037016425281763,0.02472715452313423,0.0051564984023571014,-0.014639497734606266,7.958736205182504e-06,0.008637979626655579,0.034792277961969376,-0.009944943711161613,0.006076630670577288,-0.0030364375561475754,-0.012844299897551537,-0.013422668911516666,0.0018299372168257833,0.01522537786513567,0.009591912850737572,0.0009285827982239425,-0.010042590089142323,0.017666546627879143,0.019604457542300224,0.021782731637358665,-0.01482727937400341,0.003310599597170949,0.015187821350991726,0.03307970613241196,0.004904869943857193,0.045428261160850525,-0.01646474003791809,0.0026496064383536577,0.00704934261739254,0.000750659208279103,0.009291461668908596,-0.006628710310906172,-0.007759158965200186,-0.008457709103822708,-0.003633584827184677,-0.02618434466421604,-0.03602413088083267,-0.01385832391679287,0.004897358827292919,-0.002345399232581258,-0.03307970613241196,0.0066549996845424175,-0.035212911665439606,-0.03325997665524483,-0.020505812019109726,0.01069607213139534,-0.010568380355834961,-0.03325997665524483,-0.001928522833622992,-0.008622957393527031,0.027371129021048546,0.05200814828276634,0.03136713430285454,0.011950456537306309,0.017636500298976898,0.005250389222055674,-0.02351032756268978,-0.0246069747954607,0.00902856606990099,0.040200404822826385,0.030375642701983452,0.045488350093364716,0.034131284803152084,0.01592392846941948,0.037105754017829895,-0.018087178468704224,-0.006065363995730877,0.006046585738658905,-0.02466706559062004,0.013535338453948498,-0.02322489768266678,-0.006369571201503277,-0.008698069490492344,0.016329536214470863,-0.022699108347296715,0.013550360687077045,-0.017275959253311157,0.003766910172998905,-0.006497262977063656,0.031757719814777374,-0.004604418762028217,-0.018282471224665642,-0.0072296131402254105,0.01921387016773224,-0.0431448295712471,-0.04059099406003952,-0.00304770446382463,-0.001582064782269299,-0.011957968585193157,-0.031337086111307144,0.05717591196298599,0.014737144112586975,-0.02601909637451172,0.01388836931437254,-0.019544368609786034,0.003177274251356721,0.0027472530491650105,-0.04452690854668617,-0.03929905220866203,-0.013242398388683796,-0.0020543369464576244,0.01883830688893795,-0.021226895973086357,-0.03851787745952606,0.0037068198435008526,-0.0016797115094959736,0.0009511166717857122,0.024396657943725586,-0.013565383851528168,-0.012288465164601803,-0.02091142162680626,-0.005430660210549831,-0.027446242049336433,0.009869830682873726,0.003226097673177719,-0.010913899168372154,0.002375444397330284,-0.01324990950524807,0.0021200606133788824,0.008209836669266224,0.027446242049336433,-0.00896096508949995,-0.04125198721885681,-0.01696048490703106,-0.011409644037485123,0.029789762571454048,-0.0023923448752611876,-0.004649486392736435,-0.037947021424770355,0.006613687612116337,0.036745212972164154,-0.022173317149281502,0.009456709958612919,0.023660553619265556
0.013102822937071323,0.019054198637604713,0.0022225817665457726,0.0363776832818985,-0.027822069823741913,0.019217474386096,-0.01045776717364788,0.05361952632665634,0.020082831382751465,-0.047937557101249695,-0.016662219539284706,0.009772012010216713,-0.009257695637643337,0.040100354701280594,0.010506750084459782,-0.013649794273078442,-0.03214885666966438,0.01858070120215416,-0.028148619458079338,0.046761974692344666,-0.05992194265127182,0.050843849778175354,0.016980605199933052,-0.03366731479763985,0.0022531957365572453,-0.04359443858265877,0.01230277493596077,-0.011829277500510216,0.07373501360416412,-0.00036048071342520416,0.035920511931180954,-0.0363776832818985,0.03322647139430046,0.005290111526846886,-0.006984090432524681,0.059726014733314514,-0.014760064892470837,0.03634502738714218,-0.012278283946216106,0.017699016258120537,0.006106487009674311,-0.02328302338719368,0.03915335610508919,0.01765003241598606,0.0039961570873856544,0.012678307481110096,0.017192862927913666,-0.010180199518799782,-0.016637727618217468,0.021878857165575027,-0.03325912728905678,0.028328221291303635,0.009788339026272297,0.050941817462444305,-0.026646489277482033,-0.06400381773710251,0.05299908295273781,0.031854961067438126,-0.03876149654388428,-0.0049513159319758415,0.014907012693583965,-0.03889211639761925,0.011706821620464325,0.002932828152552247,0.03530006483197212,-0.017862290143966675,0.01646628975868225,0.0011245568748563528,0.0023246286436915398,0.009714866057038307,-0.0221074428409338,0.014547807164490223,0.022172752767801285,-0.01491517573595047,-0.01910318061709404,-0.016409141942858696,-0.006257516331970692,-0.009216876700520515,-0.01176396757364273,-0.003969624638557434,0.011649674735963345,0.010514913126826286,-0.022531956434249878,-0.015323363244533539,-0.03112022578716278,-0.03908804804086685,-0.09927123039960861,0.0021776810754090548,-0.03467962145805359,0.017437776550650597,-0.038141053169965744,0.0455210842192173,-0.037357330322265625,0.0486886203289032,0.0012194605078548193,-0.04800286516547203,-0.007367786951363087,-0.011861932463943958,0.049635615199804306,-0.010204690508544445,0.018123531714081764,-0.010155708529055119,4.6558900066884235e-05,-0.03126717358827591,0.03725936636328697,0.030532434582710266,-0.03500617295503616,-0.06057504564523697,-0.04372505843639374,0.023070765659213066,-0.0805925652384758,0.006347317714244127,-0.006269761826843023,0.019413404166698456,-0.03961052745580673,0.0345163457095623,-0.05704830214381218,-0.02578113041818142,0.004926824942231178,0.01479271985590458,-0.014670263044536114,0.007220839150249958,0.010025088675320148,-0.0653100237250328,-0.031479429453611374,0.004179841373115778,-0.010661860927939415,-0.032246824353933334,-0.006151387467980385,0.007882103323936462,0.025209669023752213,-0.032638683915138245,0.008061706088483334,-0.02354426309466362,-0.033291783183813095,0.044149573892354965,0.007163692731410265,0.000568401301279664,-0.007408605422824621,0.029275216162204742,0.06638763844966888,0.023185057565569878,0.04855800047516823,0.012000716291368008,-0.020491018891334534,-0.05505634844303131,-0.01869499310851097,-0.021144120022654533,-0.024050414562225342,-0.007016745395958424,-0.0019368502544239163,-0.01497232262045145,0.007224921137094498,-0.024523911997675896,-0.03742264211177826,-0.06831428408622742,-0.029258890077471733,0.06707338988780975,-0.00824947189539671,0.020360399037599564,-0.01636015996336937,-0.0070371548645198345,0.03255704417824745,0.03575723618268967,0.02823025733232498,0.008620922453701496,-0.002804249059408903,-0.013739596121013165,-0.05939946323633194,0.010490422137081623,-0.05626458302140236,-0.02013181336224079,-0.03438572585582733,0.03738998621702194,-0.0024103480391204357,0.009502608329057693,0.016947951167821884,-0.028948666527867317,-0.06132610887289047,-0.0003405815514270216,0.014735573902726173,0.04777428135275841,-0.013837561011314392,-0.009167893789708614,-0.07053482532501221,0.022319700568914413,-0.012294611893594265,0.023380987346172333,0.03546334058046341,-0.03165903314948082,-0.013396717607975006,0.027022020891308784,-0.012980367057025433,0.025666838511824608,0.005441141314804554,-0.05322766676545143,0.009845485910773277,0.03177332505583763,0.09920591861009598,-0.007208593655377626,-0.013306916691362858,0.029601767659187317,-0.0051880646497011185,0.011796622537076473,-0.048133485019207,-0.02107881009578705,-0.02432798221707344,-0.019168490543961525,0.016066264361143112,-0.010572060011327267,0.0662243589758873,-0.014074309729039669,-0.025928078219294548,-0.014572298154234886,-0.019544024020433426,-0.017976583912968636,0.002849149750545621,0.03980645909905434,0.016303014010190964,0.0004967133281752467,-0.03817370906472206,0.017192862927913666,0.011070048436522484,-0.03182230889797211,0.050941817462444305,-0.003398162079975009,0.001731736003421247,-0.03335709497332573,-0.030973277986049652,-0.01216399110853672,0.009380151517689228,0.009910795837640762,-0.019429732114076614,-0.045063912868499756,0.013135477900505066,0.03598581999540329,-0.06184858828783035,0.006020767614245415,0.017225518822669983,0.05038668215274811,-0.03500617295503616,0.03859822079539299,-0.007698418572545052,-0.00902094691991806,0.037585917860269547,-0.009665883146226406,-0.05100712552666664,-0.03807574138045311,-0.01845008134841919,-0.01831946149468422,-0.039186011999845505,0.02839353121817112,-0.02747919224202633,0.017584722489118576,-0.059138223528862,0.027413880452513695,-0.030712038278579712,-0.01058838702738285,0.009380151517689228,-0.013715104199945927,0.049374375492334366,-0.006139141973108053,-0.034614309668540955,-0.007514734286814928,-0.021911511197686195,-0.03810839727520943,-0.0035165364388376474,-0.006861634086817503,-0.009045437909662724,0.024621877819299698,0.004547210410237312,0.004551291931420565,0.07184102386236191,0.013992671854794025,-0.03947990760207176,0.032638683915138245,0.03098960407078266,0.0121721550822258,-0.03165903314948082,0.04382302239537239,-0.03113655187189579,-0.016164230182766914,-0.043888334184885025,0.017045915126800537,-0.0007107566925697029,0.0013633467024192214,0.027315916493535042,0.003422653302550316,0.0073310500010848045,-0.018743976950645447,-0.03425510600209236,-0.012694635428488255,0.006359563209116459,0.007000417914241552,0.002005221787840128,-0.028050653636455536,-0.0636119619011879,-0.010082234628498554,-0.01583768054842949,0.014580462127923965,0.010498586110770702,-0.023185057565569878,0.022923817858099937,0.005086017772555351,-0.05263987556099892,0.0475783497095108,0.050451990216970444,-0.02014814130961895,-0.0077963839285075665,-0.0017235722625628114,-0.017862290143966675,-0.048721276223659515,-0.0013378349831327796,0.0298466794192791,-0.02431165613234043,-0.03415714204311371,-0.021242083981633186,0.01636832393705845,-0.03373262658715248,-0.04659869894385338,-0.0033001969568431377,0.0005084486911073327,0.002008283045142889,-0.08614391833543777,-0.0010408784728497267,-0.002636892022565007,0.005024789832532406,-0.05117040127515793,0.017960255965590477,0.0005699319881387055,0.008531121537089348,0.010955755598843098,-0.015249890275299549,0.03546334058046341,0.030777348205447197,-0.03820636123418808,0.014825374819338322,0.011004738509654999,-0.004902333486825228,-0.006400382146239281,-0.011159850284457207,-0.013772251084446907,0.03650830313563347,-0.04601091146469116,0.009216876700520515,-0.07543307542800903,0.04343116283416748,0.01119250524789095,0.0015256012557074428,-0.011396599002182484,0.015445820055902004,0.033308111131191254,-1.246088413608959e-05,0.026532195508480072,0.03980645909905434,-0.025797458365559578,0.039577871561050415,-0.006698358803987503,-0.0714491605758667,0.04522718861699104,-0.002304219175130129,0.009649555198848248,0.02326669543981552,0.00797598622739315,0.03699812665581703,0.030940622091293335,-0.04156982898712158,0.012817091308534145,0.012800764292478561,-0.0084413206204772,0.0002042213745880872,-0.008808689191937447,0.0046492572873830795,-0.02800167165696621,-0.0324590802192688,-0.0012021125294268131,0.04248416796326637,-0.006726932246237993,0.032230496406555176,-0.017421448603272438,0.03650830313563347,0.0013062003999948502,-0.015151924453675747,-0.028573134914040565,0.0337652824819088,-0.038141053169965744,0.00392268318682909,-0.009208712726831436,0.01794392801821232,-0.08588267862796783,0.05290111526846886,-0.05166022479534149,-0.027234278619289398,-0.02955278381705284,0.0049513159319758415,-0.015160088427364826,0.016572417691349983,0.03572458028793335,-0.022042132914066315,-0.003932887688279152,-0.009143402799963951,-0.0021001254208385944,-0.008678069338202477,0.007637190632522106,-0.029209906235337257,0.02878539264202118,-0.053586870431900024,0.01099657453596592,0.0010051620192825794,-0.027299588546156883,-0.01779698021709919,-0.048721276223659515,0.023217711597681046,-0.0016541803488507867,0.010939428582787514,0.01058838702738285,-0.00392064219340682,-0.012253792956471443,0.0017154085217043757,0.006049340590834618,-0.050288714468479156,0.01446616929024458,-0.02772410400211811,0.016449961811304092,-0.0012082353932783008,-0.007608617655932903,0.023250367492437363,-0.05505634844303131,-0.01794392801821232,-0.054207317531108856,0.020360399037599564,0.005139082204550505,-0.024034088477492332,0.007196348160505295,-0.002261359477415681,-0.017747998237609863,0.0009770991746336222,-0.02600971609354019,0.0007046338869258761,0.024752497673034668,-0.01740512065589428,0.019919555634260178,-0.04339851066470146,-0.016400979831814766,-0.0062493528239429,-0.016801003366708755,0.037585917860269547,0.0003438980784267187,0.001184764550998807,-0.060117874294519424,0.0010663901921361685,-0.013633467257022858,-0.02341364324092865,-0.004596192855387926,-0.03467962145805359,0.03961052745580673,0.06837958842515945,0.0007133078761398792,-0.009078092873096466,-0.003573682624846697,-0.00973935704678297,-0.005269702523946762,-0.025177013128995895,0.04352913051843643,-0.02893233858048916,0.012335429899394512,-0.016417305916547775,0.03588785603642464,0.00624118885025382,-0.010906773619353771,-0.03850025683641434,-0.018352115526795387,0.0009408724727109075,-0.017617378383874893,-0.00810252409428358,-0.034842897206544876,0.0223850104957819,0.026777109131217003,-0.0076331086456775665,-0.01990322954952717,0.002936909906566143,0.019005216658115387,-0.01751941256225109,0.03428776189684868,0.011135358363389969,-0.0031083489302545786,0.04281071946024895,0.016409141942858696,-0.04695790633559227,0.035920511931180954,0.021552307531237602,0.01738879270851612,-0.011037393473088741,-0.01910318061709404,-0.030516106635332108,-0.025862768292427063,0.0023348331451416016,-0.01411512866616249,-0.01191091537475586,-0.011110867373645306,0.011470072902739048,-0.025356614962220192,-0.015805024653673172,0.007608617655932903,-0.016947951167821884,-0.0015898908022791147,-0.021111464127898216,-0.052117396146059036,0.011919078417122364,0.020980844274163246,0.009241367690265179,0.0382390171289444,-0.02483413554728031,-0.047676313668489456,-0.0021654353477060795,-0.005135000217705965,-0.008224980905652046,0.003483881475403905,0.006714686751365662,-0.006049340590834618,-0.020719604566693306,0.009208712726831436,0.00810660608112812,-0.0578320249915123,0.018286805599927902,-0.016801003366708755,0.0022960554342716932,-0.06517940014600754,0.009527099318802357,-0.016392815858125687,-0.030646726489067078,-0.018662339076399803,0.03494086116552353,0.0021654353477060795,0.012825255282223225,0.017584722489118576,0.008759706281125546,-0.010678188875317574,0.005139082204550505,-0.023723864927887917,0.055905379354953766,0.01817251369357109,0.008922982029616833,-0.023707536980509758,-0.003208354813978076,0.008465811610221863,0.01569889672100544,0.004310461226850748,0.026075026020407677,-0.00565748056396842,-0.0350714810192585,-0.026385247707366943,0.012376248836517334,0.016662219539284706,-0.00897196400910616,0.014008999802172184,0.024491257965564728,-0.006788160186260939,0.0017817390616983175,0.008212734945118427,0.043888334184885025,-0.02775675803422928,-0.016115248203277588,0.009241367690265179,-0.02775675803422928,-0.0010531240841373801,0.010514913126826286,0.018025565892457962,0.04646807909011841,0.02631993778049946,0.008086197078227997,0.03149575740098953,0.008784198202192783,0.04411691799759865,0.038141053169965744,0.001541928737424314,0.02120942994952202,0.033961210399866104,0.028426187112927437,0.010816972702741623,-0.04176575690507889,-0.02156863361597061,-0.014996813610196114,0.023119747638702393,-0.03820636123418808,0.02969973161816597,0.03765122592449188,0.01164151169359684,-0.020474690943956375,-0.021682927384972572,-0.0033675478771328926,-0.0316263772547245,0.014139619655907154,0.017878618091344833,-0.02302178181707859,0.007343295495957136,0.00028828252106904984,-0.0010332249803468585,-0.020246107131242752,0.0015072327805683017,0.03703078255057335,-0.01569889672100544,0.008424992673099041,-0.014833538793027401,-0.01582135260105133,0.0055676791816949844,-0.008947473019361496,-0.039186011999845505,-0.0015225398819893599,-0.025144357234239578,-0.00797598622739315,0.03167536109685898,0.01882561296224594,-0.02643423154950142,-0.04712117835879326,0.013886542990803719,-0.016417305916547775,-0.017372464761137962,0.04734976589679718,0.0036145015619695187,8.080839324975386e-05,-0.03205089271068573,0.019299110397696495,0.012310938909649849,0.00856377650052309,0.03258970007300377,-0.024507585912942886,-0.008367846719920635,-0.044149573892354965,-0.04973358288407326,-0.014849865809082985,-0.02811596356332302,-0.010612878017127514,-0.006555493455380201,-0.020327743142843246,-0.024148380383849144,-0.007012663409113884,-0.0063636451959609985,0.015935644507408142,0.0056901355274021626,0.036181751638650894,-0.03559396043419838,0.02787105180323124,0.005890147294849157,0.06217513978481293,0.021503323689103127,0.017241844907402992,0.008604595437645912,0.0188419409096241,-0.03902273625135422,0.01033531129360199,0.01938074827194214,0.019299110397696495,0.018482735380530357,-0.005747281946241856,-0.012319102883338928,-0.007763728965073824,-0.007726992014795542,-0.04408426582813263,0.004073712509125471,-0.025193341076374054,0.022433992475271225,-0.0017256132559850812,0.013200787827372551,0.019135836511850357,0.010449603199958801,0.006461610086262226,-0.007963740266859531,-0.05744016170501709,0.032622355967760086,0.0792863667011261,0.04150451719760895,0.017584722489118576,-0.03516944497823715,0.03009159304201603,0.020115487277507782,0.013486519455909729,-0.0442148856818676,-0.03863087669014931,-0.010710843838751316,0.015249890275299549,-4.0627426642458886e-05,0.016703037545084953,-0.014662100002169609,0.038794152438640594,-0.02867109887301922,0.043627094477415085,-0.020082831382751465,-0.007580044213682413,0.017552068457007408,-0.03255704417824745,0.011037393473088741,0.030173229053616524,-0.04320257902145386,0.039708491414785385,-0.03680219501256943,-0.003971665631979704,-0.009371988475322723,-0.0017011219169944525,-0.036573611199855804,0.00021098197612445801,-0.018662339076399803,0.008955636993050575,-0.04081876203417778,-0.02078491449356079,-0.04013300687074661,-0.01582951657474041,0.02694038301706314,0.03441838175058365,-0.03129982575774193,0.0016358119901269674,-0.018939906731247902,-0.039316631853580475,0.013845724053680897,0.027103658765554428,0.008029051125049591,-0.04189637675881386,-0.021633945405483246,0.03347138687968254,0.00012181849888293073,0.018531719222664833,0.0060044401325285435,-0.023462625220417976,-0.027887379750609398,0.01438453234732151,-0.027152640745043755,-0.04094938188791275,-0.040230974555015564,-0.03585520014166832,-0.006469774059951305,-0.02248297445476055,0.011070048436522484,0.028181273490190506,0.005751363933086395,-0.020213451236486435,0.04330054298043251,-0.023103419691324234,-0.05110509321093559,-0.0004331891250330955,-0.03350403904914856,-0.005041117314249277,-0.04672931879758835,-0.01649894379079342,-0.006098323035985231,0.031708016991615295,-0.005988112650811672,0.044149573892354965,-0.004988052882254124,-0.028834374621510506,-0.01646628975868225,-0.07615148276090622,0.01380490604788065,-0.07223287969827652,-0.018613355234265327,-0.00016429551760666072,-0.02512803114950657,0.07046951353549957,-0.016694873571395874,-0.013723268173635006,0.004149227403104305,0.02880171872675419,0.03833698108792305,-0.009951614774763584,-0.03100593201816082,-0.008098443038761616,0.02486679144203663,-0.02261359430849552,-0.012898729182779789,0.008931145071983337,-0.024654533714056015,0.018368443474173546,0.014139619655907154,0.0020633884705603123,0.0008827057317830622,0.028164947405457497,-0.03585520014166832,-0.036932818591594696,0.0012296652421355247,0.04669666662812233,0.05375014618039131,0.02013181336224079,-0.03128350153565407,-0.007241248618811369,-0.003963502123951912,-0.0038696187548339367,-0.06475488841533661,0.01753574050962925,0.010302655398845673,0.001392940292134881,-0.003604296827688813,-0.03624706342816353,0.020229779183864594,0.013894706964492798,0.048721276223659515,0.02809963747859001,-0.01622137613594532,0.00017934743664227426,-0.04006769880652428,0.01960933394730091,0.014433514326810837,-0.030646726489067078,-0.02134004980325699,-0.003779817372560501,-0.03575723618268967,0.03725936636328697,0.0002375141775701195,-0.018646011129021645,0.021095136180520058,-0.009061765857040882,0.014400859363377094,0.002363406354561448,0.04434550553560257,-0.007033072877675295,0.00798415020108223,0.0041002449579536915,-0.024279000237584114,0.0026858747005462646,-0.015649912878870964,0.00797598622739315,0.009094420820474625,0.007216757163405418,-0.013388554565608501,-0.006057504564523697,-0.029650749638676643,0.0408514179289341,-0.022662578150629997,-0.021535979583859444,0.03464696556329727,0.019658315926790237,0.01204153522849083,-0.025062721222639084,0.018482735380530357,-0.012531360611319542,-0.035104136914014816,0.0006893268437124789,-0.01898888871073723,0.013233442790806293,0.0046492572873830795,-0.010123053565621376,-0.006988172419369221,0.0002571582153905183,0.01938074827194214,-0.012131336145102978,0.005922802723944187,-0.017731670290231705,-0.019037870690226555,0.029634421691298485,0.003759408136829734,0.010906773619353771,0.001624586759135127,0.006282007787376642,-0.06671418994665146,0.04356178268790245,-0.014294730499386787,-0.00824130792170763,-0.018123531714081764,0.020491018891334534,-0.008347436785697937,-0.013257934711873531,-0.007616781163960695,-0.029863007366657257,-0.04659869894385338,0.035659272223711014,-0.02158496156334877,0.0055472697131335735,0.033030543476343155,0.012090517207980156,-0.001181703177280724,0.00929035060107708,-0.009600573219358921,0.010931264609098434,0.03353669494390488,-0.02708733081817627,-0.01791127398610115,0.007763728965073824,0.03621440753340721,0.022695232182741165,0.008229062892496586,0.02356058917939663,0.004136981442570686,0.009576082229614258,-0.02316872961819172,-0.021274739876389503,0.022025804966688156,-0.014694754965603352,-0.02354426309466362,0.013813069090247154,0.008045378141105175,0.01675201952457428,0.032132528722286224,0.014858029782772064,0.013690613210201263,-0.011886423453688622,-0.042451512068510056,-0.020360399037599564,-0.02692405693233013,0.010392457246780396,0.023968778550624847,-0.004551291931420565,0.03650830313563347,-0.01740512065589428,-0.015641750767827034,0.01497232262045145,-0.010547568090260029,-0.038141053169965744,-0.008265799842774868,0.02824658341705799,-0.016319341957569122,0.023707536980509758,0.005600334145128727,-0.03144677355885506,0.011274142190814018,0.00986997690051794,-0.011216996237635612,0.008196407929062843,0.005571761168539524,-0.01584584452211857,0.014874357730150223,0.05832184851169586,0.0002852211182471365,0.00811068806797266,0.0009209733689203858,0.019821591675281525,0.004828859586268663,-4.850417099078186e-05,-0.029275216162204742,0.010343474335968494,-0.004947233945131302,0.03807574138045311,-0.011682329699397087,-0.03178965300321579,-0.03869618847966194,-0.013062003999948502,-0.03980645909905434,0.010286328382790089,-0.014735573902726173,-0.004196168854832649,0.023054437711834908,-0.010670024901628494,0.006779996678233147,-0.0003903294273186475,-0.039675839245319366,0.01923380047082901,-0.015347855165600777,-0.00033752014860510826,-0.006441200617700815,0.007641272619366646,0.014531480148434639,-0.03781450167298317,-0.004128817934542894,0.00651059253141284,0.003677770495414734,0.009641392156481743,0.015421329066157341,-0.001353141968138516,-0.047153834253549576,0.030385486781597137,0.02889968454837799,0.02682609111070633,0.006016685627400875,-0.01882561296224594,-0.018384771421551704,0.02026243321597576,-0.0217319093644619,-0.028622116893529892,-0.0012745659332722425,-0.021911511197686195,0.022417664527893066,0.03007526509463787,-0.004030853044241667,-0.0337652824819088,-0.005959539208561182,0.010441439226269722,0.017111225053668022,0.0010470012202858925,0.0027715940959751606,0.03418979421257973,0.028311893343925476,0.04003504291176796,-0.005257456563413143,0.02225438877940178,0.04656604677438736,0.02235235460102558,0.025144357234239578,-0.03964318335056305,0.02721795067191124,0.0024654532317072153,-0.03007526509463787,0.0014898848021402955,-0.026058698073029518,0.030124247074127197,0.021911511197686195,0.018156185746192932,0.01753574050962925,0.020768586546182632,-0.003038957016542554,0.026630161330103874,0.02762613818049431,-0.0009459748398512602,0.030058937147259712,-0.0030756937339901924,0.0054819597862660885,0.0716450959444046,0.04411691799759865,-0.0031961090862751007,0.03686750680208206,0.03494086116552353,0.0016327504999935627,0.02891601249575615,-0.008996454998850822,0.03725936636328697,-0.04385567829012871,0.008151507005095482,-0.016515271738171577,0.038663532584905624,0.015388674102723598,-0.006747341714799404,0.03856556862592697,0.019184818491339684,0.0010663901921361685,0.052378635853528976,-0.01510294247418642,0.025699492543935776,-0.03755326196551323,0.02630361169576645,-0.026483213528990746,0.02863844484090805,-0.03136513754725456,0.028197601437568665,0.025568872690200806,-0.019854245707392693,-0.022450320422649384,-0.028883356600999832,0.036704231053590775,0.02785472385585308,-0.006559575442224741,-0.03961052745580673,0.024540239945054054,-0.010172035545110703,-0.012343593873083591,0.01569889672100544,-0.022303372621536255,-0.02852415107190609,-0.015576439909636974,-0.027707776054739952,0.018156185746192932,0.0033491794019937515,-0.0012541564647108316,0.010816972702741623,0.008547448553144932,-0.0019092976581305265,-0.030842658132314682,-0.004996216390281916,0.03699812665581703,0.03144677355885506,0.009233204647898674,0.007898430339992046,-0.0069595989771187305,0.012180319055914879,0.03980645909905434,-0.03149575740098953,0.02576480247080326,-0.014458006247878075,-0.025699492543935776,-0.016417305916547775,0.005628907587379217,-0.003018547547981143,-0.008045378141105175,0.011796622537076473,0.0009903652826324105,0.005902393255382776,0.00552686071023345,0.012670144438743591,0.005135000217705965,0.006008522119373083,-0.011731312610208988,0.0020388972479850054,-0.0507458858191967,0.05440324917435646,0.008931145071983337,0.005090099759399891,0.019527696073055267,-0.01987057365477085,-0.0017439816147089005,0.008180079981684685,0.015478475019335747,0.0066003939136862755,0.0061554694548249245,-0.022417664527893066,0.013951852917671204,0.015984628349542618,-0.01032714731991291,-0.01661323569715023,-0.026711799204349518,0.008727051317691803,0.005628907587379217,-0.005175819154828787,0.035659272223711014,0.03575723618268967,-0.0020980844274163246,-0.012327266857028008,0.012261955998837948,-0.0032777467276901007,0.021029826253652573,-0.013486519455909729,-0.005751363933086395,-0.022940145805478096,0.025356614962220192,-0.0249974112957716,0.0003370099002495408,0.01289056520909071,0.004006361588835716,0.014833538793027401,0.032132528722286224,0.01620504818856716,-0.01673569343984127,0.0032593782525509596,-0.026973038911819458,0.003128758165985346,0.006869798060506582,-0.018270477652549744,0.0046492572873830795,-0.01751941256225109,0.009731193073093891,-0.002320546656847,0.0110537214204669,0.007167774718254805,-0.005943211726844311,-0.0052656205371022224,0.0009296473581343889,-0.027805741876363754,0.001750104478560388,0.03833698108792305,-0.034353069961071014,0.0048941695131361485,0.010123053565621376,-0.01013938058167696,0.004530882928520441,-0.028867028653621674,0.033275455236434937,0.014613117091357708,-0.031348809599876404,0.025601528584957123,-0.016123412176966667,-0.02878539264202118,-0.010074070654809475,-0.011012902483344078,0.17842698097229004,-0.005620743613690138,0.011135358363389969,-0.003714507445693016,0.007951495237648487,-0.0019307275069877505,-0.027005692943930626,0.04137389734387398,0.0002598369319457561,0.03234478831291199,0.0044288355857133865,0.009959777817130089,0.024295328184962273,0.002498108195140958,-0.0036634840071201324,-0.035104136914014816,-0.01556011289358139,-0.006645294837653637,-0.024409620091319084,-0.014041654765605927,-0.008265799842774868,-0.01001692470163107,0.02341364324092865,-0.0397411473095417,0.0063718087039887905,-0.007298395037651062,-0.008127016015350819,0.047937557101249695,0.01171498466283083,0.005375830922275782,0.01843375340104103,-0.01085779070854187,0.008506630547344685,0.000812803627923131,0.024425948038697243,0.029748715460300446,-0.027920033782720566,-0.033830590546131134,-0.005849328823387623,-0.011543545871973038,0.0004574252525344491,0.01569889672100544,0.029193580150604248,0.029732387512922287,0.025683166459202766,-0.0008403562824241817,0.018368443474173546,-0.00798823218792677,0.021519651636481285,-0.016286686062812805,-0.004530882928520441,-0.01781330816447735,0.01646628975868225,-0.02134004980325699,0.04186372458934784,0.008743379265069962,0.004339034669101238,0.02955278381705284,0.0455210842192173,0.021944167092442513,-0.019527696073055267,-0.017192862927913666,-0.01805821992456913,0.002914459677413106,-0.007049400359392166,0.005988112650811672,0.010743498802185059,0.012229301035404205,-0.020899206399917603,0.05600334331393242,-0.01712755300104618,0.012245628982782364,-0.012996694073081017,0.035398032516241074,-0.02196049503982067,-0.019070526584982872,0.012025207281112671,0.03869618847966194,0.0019827713258564472,0.02615666389465332,-0.007939249277114868,0.0269567109644413,-0.002236868254840374,0.01073533482849598,-0.009200548753142357,-0.036573611199855804,-0.0010393477277830243,-0.011037393473088741,0.028442515060305595,-0.015070287510752678,-0.023903468623757362,0.010931264609098434,-0.009355660527944565,0.002969565102830529,0.0011643551988527179,-0.009853649884462357,-0.02290748991072178,-0.005828919354826212,0.007445342373102903,0.012612997554242611,-0.030418142676353455,0.025177013128995895,-0.005130918696522713,0.012278283946216106,-0.0007796383579261601,-0.009535263292491436,0.008155588991940022,-0.014049818739295006,-0.014131455682218075,-0.0033328519202768803,0.0019235842628404498,0.022466646507382393,0.021944167092442513,-0.020082831382751465,0.030140575021505356,-0.016784675419330597,0.006265680305659771,-0.0063840546645224094,-0.0071881841868162155,-0.008931145071983337,-0.022009477019309998,-0.011992552317678928,-0.012196646071970463,-0.021029826253652573,-0.026205645874142647,-0.0007408605306409299,0.007020827382802963,0.009633228182792664,-0.01807454787194729,0.003992075100541115,-0.019429732114076614,0.0007765769842080772,0.017601050436496735,0.023478953167796135,-0.007812711410224438,-0.014719245955348015,0.012702799402177334,-0.0037716536317020655,-0.012245628982782364,-0.008669905364513397,0.0019144000252708793,-0.005596252623945475,0.0024103480391204357,0.007616781163960695,-0.01144558098167181,0.0397411473095417,-0.0015174375148490071,0.008033132180571556,0.012253792956471443,0.014090636745095253,0.010049579665064812,0.03987176716327667,-0.015339691191911697,-0.006400382146239281,-0.01060471497476101,-0.027038348838686943,0.02393612265586853,0.02880171872675419,-0.009951614774763584,-0.026124007999897003,-0.017992909997701645,-0.005743199959397316,-0.0327366478741169,-0.02656485140323639,0.039708491414785385,0.02065429463982582,-0.025160685181617737,-0.0027960853185504675,0.003994116093963385,-0.03481024131178856,0.014417187310755253,